tree
version=v2
num_class=1
num_tree_per_iteration=1
label_index=0
max_feature_idx=7
objective=regression
feature_names=LotArea 1stFlrSF 2ndFlrSF TotalBsmtSF GarageArea TotRmsAbvGrd YearBuilt MoSold
feature_infos=[1526:215245] [334:4692] [0:2065] [0:6110] [0:1418] [2:14] [1872:2010] [1:12]
tree_sizes=1003 1010 1010 1005 1015 1013 1006 1011 1010 1018 1015 1012 1013 1013 1009 1012 1011 1010 1012 1016 1013 1015 1013 1011 1015 1008 1016 1011 1008 1018 1012 1012 1010 1012 1010 1010 1011 1013 1012 1011 1018 1012 1017 1011 1010 1009 1010 1018 1018 1015 1018 1017 1018 1018 1013 1021 1012 1011 1017 1016 1015 1024 1022 1014 1018 1012 1023 1013 1013 1014 1019 1011 1015 1021 1012 1020 1009 1017 1010 1020 1020 1011 1018 1022 1008 1010 1017 1015 1018 1016 1022 1021 1025 1022 1015 1014 1017 1011 1012 1013 1019 1008 1021 1022 1011 1007 1014 1016 1010 1012 1020 1012 1015 1016 1026 1017 1021 1017 1007 1009 1021 1013 1015 1019 1014 1016 1019 1019 1018 1019 1010 1007 1006 1005 1016 1017 1022 1014 1014 1017 1010 1008 1010 1017 1019 1018 1009 1012 1007 1010 1019 1015 1015 1016 1018 1014 1018 1021 1016 1019 1009 1013 1014 1014 1021 1014 1011 1016 1016 1021 1021 1018 1020 1021 1018 1020 1019 1015 1009 1011 1012 1011 1008 1009 1015 1008 1017 1017 1011

Tree=0
num_leaves=12
num_cat=0
split_feature=4 6 1 0 5 5 1 1 5 6 4
split_gain=2.13329e+12 7.70245e+11 3.70034e+11 2.55095e+11 1.92864e+11 1.40289e+11 1.30785e+11 1.23962e+11 1.05274e+11 8.62544e+10 6.55873e+10
threshold=687.50000000000011 1979.5000000000002 1689.5000000000002 10699.000000000002 9.5000000000000018 7.5000000000000009 1689.5000000000002 1846.0000000000002 8.5000000000000018 1993.5000000000002 421.00000000000006
decision_type=2 2 2 2 2 2 2 2 2 2 2
left_child=1 3 5 -1 -4 9 8 -5 10 -2 -3
right_child=2 6 4 7 -6 -7 -8 -9 -10 -11 -12
leaf_value=179449.29545934399 180935.58690816205 181262.71903848517 190036.91841311462 181442.95699823889 197626.96632679028 188196.51685169264 188306.93259773857 186542.57486880978 187109.80039605964 185837.42409112799 183311.33000874799
leaf_count=362 14 48 35 143 11 44 13 13 16 25 210
internal_value=0 -18388.9 120129 -41413.5 192071 80257 23167.7 -7608.74 18517.9 36588.6 13636.6
internal_count=934 805 129 518 46 83 287 156 274 39 258
shrinkage=1


Tree=1
num_leaves=12
num_cat=0
split_feature=4 4 1 1 2 5 2 2 1 1 1
split_gain=1.92529e+12 5.66406e+11 3.33956e+11 1.9531e+11 2.43656e+11 1.7406e+11 1.42207e+11 8.78595e+10 7.03013e+10 6.30079e+10 5.88413e+10
threshold=687.50000000000011 386.00000000000006 1689.5000000000002 1485.0000000000002 815.00000000000011 9.5000000000000018 973.00000000000011 777.50000000000011 1163.5000000000002 1846.0000000000002 1846.0000000000002
decision_type=2 2 2 2 2 2 2 2 2 2 2
left_child=1 7 6 4 8 9 -2 -1 -3 -4 -5
right_child=2 3 5 10 -6 -7 -8 -9 -10 -11 -12
leaf_value=-2972.5378409415721 2000.8934861203461 -1688.1821145839795 5452.3486842105267 1521.5229893820626 1684.9827616183557 14609.674458451707 6176.9772338867188 254.64516920006795 -181.01911917533585 9710.9290161132812 4747.1030840705425
leaf_count=254 47 189 19 84 107 11 36 23 131 16 17
internal_value=0 -17469.5 114122 1743.25 -7610.62 182468 76244.1 -54091.5 -21423.7 147983 41288.8
internal_count=934 805 129 528 427 46 83 277 320 35 101
shrinkage=0.05


Tree=2
num_leaves=12
num_cat=0
split_feature=4 6 5 6 5 5 4 6 4 5 2
split_gain=1.73758e+12 6.5911e+11 2.82428e+11 1.95922e+11 1.43222e+11 1.08368e+11 6.88173e+10 5.77226e+10 5.0869e+10 3.94913e+10 5.04449e+10
threshold=687.50000000000011 1979.5000000000002 9.5000000000000018 1991.5000000000002 6.5000000000000009 8.5000000000000018 421.00000000000006 1954.5000000000002 328.50000000000006 7.5000000000000009 674.00000000000011
decision_type=2 2 2 2 2 2 2 2 2 2 2
left_child=1 4 3 -2 7 6 -3 -1 -6 -5 -11
right_child=2 5 -4 9 8 -7 -8 -9 -10 10 -12
leaf_value=-3297.1094472320983 83.991863458806819 -868.19125649134321 10192.540011718751 4450.9565356964767 -1999.476381380596 4964.3043083639714 1219.6797314961752 -1948.7970668538412 -274.71748067525994 8994.2063476562507 5119.4980840773815
leaf_count=142 22 48 25 47 63 17 222 180 133 14 21
internal_value=0 -16596 108416 85475.2 -37894.9 21845.9 16970.1 -50867.9 -16582.1 107957 133388
internal_count=934 805 129 104 518 287 270 322 196 82 35
shrinkage=0.05


Tree=3
num_leaves=12
num_cat=0
split_feature=4 1 4 3 3 0 0 3 4 1 1
split_gain=1.57933e+12 4.73759e+11 3.41777e+11 1.76654e+11 1.6839e+11 9.1763e+10 8.05997e+10 7.12814e+10 5.82081e+10 4.51277e+10 2.94744e+10
threshold=607.00000000000011 1689.5000000000002 362.00000000000006 1413.5000000000002 1009.0000000000001 12785.000000000002 9138.5000000000018 699.00000000000011 795.50000000000011 1093.0000000000002 1846.0000000000002
decision_type=2 2 2 2 2 2 2 2 2 2 2
left_child=2 4 9 7 -2 -3 -6 -4 -7 -1 -5
right_child=1 5 3 10 6 8 -8 -9 -10 -11 -12
leaf_value=-2909.2171154159155 -21.457344477227394 5720.434977213542 -2226.6949768066406 1512.2196454859493 1050.250359375 7484.9005108173069 4275.6161899300514 -400.18428639509364 12056.030364583334 -1379.067051410675 4304.8030628551141
leaf_count=195 47 24 64 67 25 13 86 323 15 64 11
internal_value=0 76989.1 -21509.8 -5294.47 49740.6 159783 70983.6 -14044.9 198674 -50622.2 38120.9
internal_count=934 210 724 465 158 52 111 387 28 259 78
shrinkage=0.05


Tree=4
num_leaves=12
num_cat=0
split_feature=4 1 4 2 3 5 2 2 3 3 2
split_gain=1.42535e+12 4.27568e+11 3.0897e+11 1.97613e+11 1.54121e+11 1.33916e+11 1.08418e+11 7.69451e+10 6.56203e+10 4.73568e+10 4.84046e+10
threshold=607.00000000000011 1689.5000000000002 386.00000000000006 1090.0000000000002 1413.5000000000002 8.5000000000000018 777.50000000000011 794.00000000000011 1009.0000000000001 1050.5000000000002 603.50000000000011
decision_type=2 2 2 2 2 2 2 2 2 2 2
left_child=2 3 7 8 6 -3 9 -1 -2 10 -4
right_child=1 5 4 -5 -6 -7 -8 -9 -10 -11 -12
leaf_value=-2572.5082593083384 -266.43296334402902 5821.2942020089286 -2395.1766790645638 5349.7831673971041 1810.743227719038 11230.445588235294 830.44695889087438 575.75241935366682 2202.0305010579427 -374.0622197077825 -597.58413616242967
leaf_count=256 42 35 97 41 78 17 94 21 75 117 61
internal_value=0 73139.6 -20434.3 47253.6 -4172.26 151793 -12709.4 -46676.6 26318.3 -22730.9 -34023.4
internal_count=934 210 724 158 447 52 369 277 117 275 158
shrinkage=0.05


Tree=5
num_leaves=12
num_cat=0
split_feature=6 4 5 2 4 2 4 2 6 6 6
split_gain=1.33954e+12 6.04552e+11 2.81505e+11 2.01132e+11 7.88407e+10 7.26564e+10 6.94341e+10 4.93183e+10 3.51782e+10 3.49146e+10 2.89312e+10
threshold=1986.5000000000002 665.50000000000011 9.5000000000000018 690.00000000000011 289.00000000000006 1179.5000000000002 453.50000000000006 1090.0000000000002 1951.5000000000002 1918.5000000000002 2007.5000000000002
decision_type=2 2 2 2 2 2 2 2 2 2 2
left_child=3 6 -3 4 -1 9 -2 10 -6 -5 -8
right_child=1 2 -4 5 8 -7 7 -9 -10 -11 -12
leaf_value=-2864.7742401936848 -379.06592707914467 4264.6789009246831 10903.785002055922 -1984.7425047980414 -2430.237520784945 3744.2918432617189 1109.1003801023805 4743.7884055397726 -1186.2857587915539 487.96461225869001 3763.3319424715914
leaf_count=150 68 100 19 18 74 15 154 11 245 69 11
internal_value=0 48057.5 106494 -29635.2 -38387.8 10609.5 19557.6 30043.2 -29497 -472.599 25721
internal_count=934 363 119 571 469 102 244 176 319 87 165
shrinkage=0.05


Tree=6
num_leaves=12
num_cat=0
split_feature=6 3 2 2 3 5 3 3 2 2 6
split_gain=1.20894e+12 5.60938e+11 1.90038e+11 1.81522e+11 1.38451e+11 1.34996e+11 1.27507e+11 8.64417e+10 6.55724e+10 5.41797e+10 3.15105e+10
threshold=1986.5000000000002 1727.0000000000002 940.50000000000011 690.00000000000011 1029.5000000000002 8.5000000000000018 1413.5000000000002 1095.5000000000002 1179.5000000000002 832.50000000000011 1918.5000000000002
decision_type=2 2 2 2 2 2 2 2 2 2 2
left_child=3 2 6 4 -1 -3 9 -4 10 -2 -5
right_child=1 5 7 8 -6 -7 -8 -9 -10 -11 -12
leaf_value=-2489.2368145314504 -193.74504911395866 5583.1926421066819 1929.1377314249676 -1885.5053809271919 -714.98666636293592 11425.8728125 2700.7043171176665 5898.7229644775398 3557.0772959391275 1814.3043564536356 463.56637015964674
leaf_count=293 142 29 24 18 176 15 77 32 15 44 69
internal_value=0 45654.6 31055.2 -28153.4 -36468.4 151500 19792.5 83949.4 10079 5625.55 -448.969
internal_count=934 363 319 571 469 44 263 56 102 186 87
shrinkage=0.05


Tree=7
num_leaves=12
num_cat=0
split_feature=6 3 0 5 3 5 5 5 3 3 0
split_gain=1.09106e+12 5.16037e+11 2.0735e+11 1.90083e+11 1.26615e+11 8.05432e+10 7.46629e+10 5.57119e+10 4.8651e+10 4.8467e+10 3.22532e+10
threshold=1986.5000000000002 1924.0000000000002 10816.000000000002 9.5000000000000018 1413.5000000000002 8.5000000000000018 6.5000000000000009 8.5000000000000018 1009.0000000000001 559.50000000000011 27438.000000000004
decision_type=2 2 2 2 2 2 2 2 2 2 2
left_child=2 3 9 4 6 -3 -2 10 -8 -1 -4
right_child=1 5 7 -5 -6 -7 8 -9 -10 -11 -12
leaf_value=-3571.8629138764882 -223.0482379589441 6583.9653971354146 -529.70306030156962 6537.6151045949846 2910.8984974861146 12507.233735795455 710.98462969651871 2028.2584626228579 2749.2008518218995 -1775.9519586284512 2289.1249728116122
leaf_count=42 106 12 131 19 96 11 67 31 52 356 11
internal_value=0 43371.9 -26745.8 33565.4 27812.9 188337 14840.1 2157.84 32032.7 -39309.4 -6226.86
internal_count=934 363 571 340 321 23 225 173 119 398 142
shrinkage=0.05


Tree=8
num_leaves=12
num_cat=0
split_feature=6 1 1 2 2 2 1 2 1 1 2
split_gain=9.84686e+11 5.08342e+11 1.81395e+11 1.66063e+11 1.50718e+11 9.40678e+10 6.30105e+10 6.02399e+10 5.64668e+10 4.6322e+10 4.45529e+10
threshold=1986.5000000000002 1689.5000000000002 1093.0000000000002 565.00000000000011 940.50000000000011 1057.0000000000002 1129.0000000000002 578.00000000000011 1457.5000000000002 1777.5000000000002 832.50000000000011
decision_type=2 2 2 2 2 2 2 2 2 2 2
left_child=2 4 7 -3 8 9 -6 -1 10 -4 -2
right_child=1 3 5 -5 6 -7 -8 -9 -10 -11 -12
leaf_value=-2483.2633870355016 -167.77721222468787 5037.5278558095306 -759.63859127608828 11848.606072443183 1721.7618358214695 3115.1674187911185 5158.9796614583338 -940.4845381111935 1973.1285391142876 1757.0917694091797 1656.2290486422453
leaf_count=232 140 48 213 11 24 19 30 87 66 20 44
internal_value=0 41203.3 -25408.5 126148 24717.3 -5355 72626.5 -41250.1 14368.9 -10872.2 5367.96
internal_count=934 363 571 59 304 252 54 319 250 233 184
shrinkage=0.05


Tree=9
num_leaves=12
num_cat=0
split_feature=6 3 4 0 3 3 0 0 7 4 0
split_gain=8.88679e+11 4.3306e+11 2.04302e+11 1.76388e+11 5.00984e+10 4.30583e+10 3.98534e+10 3.63816e+10 3.00211e+10 2.99117e+10 2.84871e+10
threshold=1986.5000000000002 1924.0000000000002 665.50000000000011 10816.000000000002 1297.0000000000002 559.50000000000011 11993.500000000002 14113.500000000002 9.5000000000000018 1.0000000180025095e-35 6296.0000000000009
decision_type=2 2 2 2 2 2 2 2 2 2 2
left_child=3 2 4 5 10 -1 -4 -5 -6 -7 -2
right_child=1 -3 6 7 8 9 -8 -9 -10 -11 -12
leaf_value=-3300.3992257254467 -1025.2892127143011 8597.1296620244575 2598.9009355511585 -450.44437958339478 1245.2013046036907 -2995.6406515066965 4657.7341943359379 1038.0385451815023 3597.8724557315604 -1456.3206726882318 573.86056037220533
leaf_count=42 36 23 57 106 67 35 40 67 17 321 123
internal_value=0 39143.1 30159.6 -24138.1 14672.2 -35725.8 68958.1 2520.4 34426.7 -32153.2 4235.78
internal_count=934 363 340 571 243 398 97 173 84 356 159
shrinkage=0.05


Tree=10
num_leaves=12
num_cat=0
split_feature=4 3 3 5 0 3 0 0 4 5 4
split_gain=8.48635e+11 2.56753e+11 2.39509e+11 1.21981e+11 8.63988e+10 5.15061e+10 4.84618e+10 4.70892e+10 4.20402e+10 4.10306e+10 3.74569e+10
threshold=672.50000000000011 1159.5000000000002 1924.0000000000002 6.5000000000000009 11772.000000000002 1009.0000000000001 7235.5000000000009 13220.000000000002 237.00000000000003 9.5000000000000018 462.50000000000006
decision_type=2 2 2 2 2 2 2 2 2 2 2
left_child=1 3 4 8 5 -2 -5 10 -1 -6 -3
right_child=2 7 -4 6 9 -7 -8 -9 -10 -11 -12
leaf_value=-3180.5970193614135 -1099.4039892578126 -608.98845158593133 8108.6411905924488 -1869.1198007684006 3460.8145257717224 2205.9761636075104 100.80094333975656 2203.0253538740444 -1556.2003186184147 6899.8565474076713 917.56045987265452
leaf_count=46 15 59 24 38 41 55 175 47 297 11 126
internal_value=0 -12148.8 70854.4 -23808.8 52890.1 29953.6 -5012.81 15795.2 -35481 83766.1 8614.3
internal_count=934 788 146 556 122 70 213 232 343 52 185
shrinkage=0.05


Tree=11
num_leaves=12
num_cat=0
split_feature=6 5 0 0 0 5 2 6 0 2 0
split_gain=7.78339e+11 3.64576e+11 1.94643e+11 1.25262e+11 1.15937e+11 5.53901e+10 5.18509e+10 3.76131e+10 3.36647e+10 3.15297e+10 3.19974e+10
threshold=1986.5000000000002 9.5000000000000018 13220.000000000002 9294.0000000000018 12785.000000000002 6.5000000000000009 578.00000000000011 1954.5000000000002 11344.500000000002 973.00000000000011 27438.000000000004
decision_type=2 2 2 2 2 2 2 2 2 2 2
left_child=2 3 6 -2 -3 -5 7 -1 -7 10 -4
right_child=1 4 9 5 -6 8 -8 -9 -10 -11 -12
leaf_value=-2414.7526591228616 317.90728980862366 4292.5342197963164 294.63630113601687 622.38916423797616 10849.872716346154 1886.5712952584931 -602.52818422395046 -1377.4860076245395 3412.0880227661132 3589.2923717151989 3213.8872009277347
leaf_count=145 147 14 64 40 13 66 123 220 80 11 11
internal_value=0 37236.3 -22076.8 28174.7 148995 45416.8 -29807.3 -35791 54449.4 21788.8 14455.9
internal_count=934 360 574 333 27 186 488 365 146 86 75
shrinkage=0.05


Tree=12
num_leaves=12
num_cat=0
split_feature=4 3 3 2 2 0 4 2 4 0 0
split_gain=7.09302e+11 2.94276e+11 1.61068e+11 1.59833e+11 1.28484e+11 6.40555e+10 9.17098e+10 3.97506e+10 3.4869e+10 3.11945e+10 2.61073e+10
threshold=589.00000000000011 1683.0000000000002 1142.5000000000002 940.50000000000011 690.00000000000011 12785.000000000002 795.50000000000011 1309.0000000000002 1.0000000180025095e-35 13220.000000000002 7235.5000000000009
decision_type=2 2 2 2 2 2 2 2 2 2 2
left_child=2 3 4 -2 8 -3 -7 -5 -1 -4 -6
right_child=1 5 9 7 10 6 -8 -9 -10 -11 -12
leaf_value=-3096.0913867187501 281.19295539499444 3891.443347167969 141.86522721290589 2628.18259223938 -1330.5602661132814 4527.8199283854156 10154.694754464286 5405.7275197882409 -1532.1566208865665 1672.9536698114307 397.12273555589763
leaf_count=40 107 28 160 40 27 15 14 19 327 42 115
internal_value=0 49952.2 -14687.8 28665.5 -24169.5 111945 144885 70452.9 -34052.3 9204.21 1372.39
internal_count=934 223 711 166 509 57 29 59 367 202 142
shrinkage=0.05


Tree=13
num_leaves=12
num_cat=0
split_feature=4 1 4 5 5 1 1 5 5 1 0
split_gain=6.40145e+11 2.47312e+11 1.48394e+11 1.08088e+11 9.22622e+10 6.62147e+10 3.64437e+10 2.84826e+10 2.79934e+10 2.70369e+10 2.53595e+10
threshold=589.00000000000011 1689.5000000000002 386.00000000000006 9.5000000000000018 8.5000000000000018 1431.5000000000002 817.00000000000011 8.5000000000000018 6.5000000000000009 1846.0000000000002 10547.000000000002
decision_type=2 2 2 2 2 2 2 2 2 2 2
left_child=2 4 6 9 10 8 -1 -8 -4 -3 -2
right_child=1 3 5 -5 -6 -7 7 -9 -10 -11 -12
leaf_value=-2533.5476108035527 49.141567016601563 2768.5166953125004 -819.17379167259651 8900.8635602678569 3308.4135611600659 1027.402753055457 -1404.6829268092433 855.52736002604161 130.94555575153021 5117.9925781250004 1583.6815426417761
leaf_count=74 75 25 199 14 43 99 197 15 127 24 42
internal_value=0 47454.6 -13953.4 100526 26557.8 -2102.24 -31564.5 -24895.2 -8980.71 78385.6 12000
internal_count=934 223 711 63 160 425 286 212 326 49 117
shrinkage=0.05


Tree=14
num_leaves=12
num_cat=0
split_feature=6 1 5 0 5 1 3 1 3 5 3
split_gain=6.15851e+11 3.42787e+11 1.54538e+11 1.39067e+11 8.7804e+10 3.943e+10 3.67499e+10 3.43626e+10 2.53148e+10 2.25691e+10 2.87321e+10
threshold=1979.5000000000002 1689.5000000000002 9.5000000000000018 13220.000000000002 8.5000000000000018 1506.0000000000002 699.00000000000011 990.50000000000011 1924.0000000000002 6.5000000000000009 1477.5000000000002
decision_type=2 2 2 2 2 2 2 2 2 2 2
left_child=3 4 8 6 7 -5 -1 -2 -3 10 -9
right_child=1 2 -4 5 -6 -7 -8 9 -10 -11 -12
leaf_value=-2176.0025744332211 -163.21734809875488 3016.3201076931423 10283.885795454546 -14.853291663345026 3056.8675918206936 2241.7390823364258 -1125.0549222988318 -7.8830060691049653 5312.8199924045148 1610.9286314034168 2018.6987684166952
leaf_count=108 100 36 11 49 41 32 362 73 18 81 23
internal_value=0 31472.1 97643.4 -20735.8 17946.5 17532.8 -27331 11553.7 75636.4 19925.4 9553.04
internal_count=934 383 65 551 318 81 470 277 54 177 96
shrinkage=0.05


Tree=15
num_leaves=12
num_cat=0
split_feature=6 5 0 4 0 5 0 4 0 5 0
split_gain=5.39409e+11 2.04794e+11 1.10105e+11 1.00673e+11 4.95913e+10 4.59046e+10 3.14935e+10 3.11588e+10 2.53253e+10 2.01807e+10 1.61949e+10
threshold=1986.5000000000002 9.5000000000000018 11993.500000000002 672.50000000000011 12785.000000000002 8.5000000000000018 6953.0000000000009 421.00000000000006 11344.500000000002 5.5000000000000009 3936.0000000000005
decision_type=2 2 2 2 2 2 2 2 2 2 2
left_child=2 3 6 7 -3 -4 -1 -2 -5 -8 -9
right_child=1 4 5 8 -6 -7 9 10 -10 -11 -12
leaf_value=-2035.190743036685 -543.05651632724926 3519.2702897135409 -55.461024391258164 1680.0541111924915 7656.9979073660716 2537.9833839053204 -1638.0512535519072 -429.11422417050318 3322.9394890610056 -807.15892463152386 1037.3178086689541
leaf_count=115 47 15 91 45 14 21 108 21 49 226 182
internal_value=0 29633.8 -19434 22830.4 110336 8616.2 -26430.9 12340.5 50729 -21516.6 17712.4
internal_count=934 373 561 344 29 112 449 250 94 334 203
shrinkage=0.05


Tree=16
num_leaves=12
num_cat=0
split_feature=3 4 0 3 0 3 4 4 4 1 4
split_gain=4.18821e+11 2.13274e+11 8.26388e+10 7.23854e+10 5.91921e+10 3.69095e+10 3.40834e+10 2.96143e+10 2.17491e+10 1.94723e+10 1.76647e+10
threshold=1095.5000000000002 607.00000000000011 12174.000000000002 699.00000000000011 10547.000000000002 1683.0000000000002 453.50000000000006 795.50000000000011 421.00000000000006 1506.0000000000002 825.50000000000011
decision_type=2 2 2 2 2 2 2 2 2 2 2
left_child=3 6 10 -1 8 -4 -2 -7 -5 -8 -3
right_child=1 2 5 4 -6 7 9 -9 -10 -11 -12
leaf_value=-1894.3632929694386 -477.51024426118829 1084.8872831980386 3079.5838902008841 -1321.7141050710618 422.29670145828118 3945.1741353352854 385.7824148414249 7205.6585937500004 -473.44828816519839 1554.1654209843389 2631.5285172526042
leaf_count=133 81 48 39 159 113 15 105 13 144 54 30
internal_value=0 25440.5 55720.7 -17579.6 -11087 81479.1 7146.15 109179 -18371.6 15651.8 33595
internal_count=934 385 145 549 416 67 240 28 303 159 78
shrinkage=0.05


Tree=17
num_leaves=12
num_cat=0
split_feature=6 1 1 5 5 6 1 1 0 5 1
split_gain=4.57554e+11 1.84663e+11 9.57031e+10 7.54308e+10 5.79729e+10 4.57433e+10 3.85273e+10 2.42312e+10 1.92115e+10 1.91108e+10 2.06967e+10
threshold=1986.5000000000002 1689.5000000000002 1431.5000000000002 8.5000000000000018 9.5000000000000018 1946.5000000000002 864.50000000000011 1007.5000000000001 12174.000000000002 6.5000000000000009 1576.5000000000002
decision_type=2 2 2 2 2 2 2 2 2 2 2
left_child=2 3 6 7 -3 -4 -1 -2 -7 10 -9
right_child=1 4 5 -5 -6 8 -8 9 -10 -11 -12
leaf_value=-1880.271994402809 -9.9444257679552148 3239.8742792706162 3650.7578657670456 2881.2989386422296 7307.5748579545461 -612.90342139166751 -886.28033118840506 221.06683115404709 987.71898345947272 1552.4184970013507 2361.5787278395433
leaf_count=137 101 43 11 42 11 37 338 86 38 77 13
internal_value=0 27289.9 -17901.8 18135.3 81369.6 12794 -23459.4 12147.6 3961.57 19232.8 10042.9
internal_count=934 373 561 319 54 86 475 277 75 176 99
shrinkage=0.05


Tree=18
num_leaves=12
num_cat=0
split_feature=6 2 3 3 2 3 2 0 0 6 3
split_gain=4.12942e+11 1.64674e+11 9.38222e+10 8.82421e+10 8.5332e+10 6.67623e+10 3.39776e+10 3.06131e+10 2.89509e+10 2.6939e+10 2.68356e+10
threshold=1986.5000000000002 1057.0000000000002 1580.5000000000002 1389.5000000000002 684.50000000000011 907.50000000000011 845.00000000000011 10401.000000000002 14113.500000000002 2002.5000000000002 1238.5000000000002
decision_type=2 2 2 2 2 2 2 2 2 2 2
left_child=4 2 6 -3 5 -1 10 -6 -7 -4 -2
right_child=1 3 9 -5 7 8 -8 -9 -10 -11 -12
leaf_value=-1837.7611042990616 -428.4391824869009 2420.5037509494359 820.49255828857429 6708.1348714192709 -477.87598671653052 -855.52385677075858 1491.2215134960111 1161.8395620572364 586.02375499180391 3195.8130264606884 740.52372790921117
leaf_count=201 104 36 16 18 55 204 59 59 42 47 93
internal_value=0 25925.4 17280.5 76994.3 -17006.7 -23235.1 8772.9 7414.97 -12188.1 51851.1 2468.13
internal_count=934 373 319 54 561 447 256 114 246 63 197
shrinkage=0.05


Tree=19
num_leaves=12
num_cat=0
split_feature=2 1 2 1 0 4 1 1 1 2 1
split_gain=3.24952e+11 1.9565e+11 1.23043e+11 1.02973e+11 4.59605e+10 3.84774e+10 2.89978e+10 2.52144e+10 2.02531e+10 1.91269e+10 1.8353e+10
threshold=1057.0000000000002 1431.5000000000002 777.50000000000011 1457.5000000000002 13584.000000000002 1.0000000180025095e-35 1846.0000000000002 1163.5000000000002 2128.5000000000005 578.00000000000011 1007.5000000000001
decision_type=2 2 2 2 2 2 2 2 2 2 2
left_child=1 2 5 -2 -5 -1 -3 9 -8 -7 -4
right_child=3 6 10 4 -6 7 8 -9 -10 -11 -12
leaf_value=-2484.8679639862808 1927.7631000158924 857.2960234031915 116.96579441879736 3599.5039803244836 8073.9508463541679 -1336.3720111007397 3415.6325032552086 -305.34151026882341 767.22409446022732 -525.162832883325 1305.2866504669191
leaf_count=41 53 161 66 11 12 259 21 134 11 101 64
internal_value=0 -5419.74 -13554.9 62803.5 118680 -20260.1 22610.6 -17816.9 50104.8 -22175.7 14039.7
internal_count=934 858 665 76 23 535 193 494 32 360 130
shrinkage=0.05


Tree=20
num_leaves=12
num_cat=0
split_feature=6 3 2 2 3 4 4 3 2 3 2
split_gain=3.90744e+11 1.96045e+11 1.03849e+11 7.34321e+10 4.30949e+10 3.35371e+10 9.76878e+10 3.08002e+10 2.36817e+10 2.31239e+10 2.57287e+10
threshold=1979.5000000000002 1683.0000000000002 940.50000000000011 1034.5000000000002 769.00000000000011 795.50000000000011 861.00000000000011 1159.5000000000002 578.00000000000011 1477.5000000000002 805.00000000000011
decision_type=2 2 2 2 2 2 2 2 2 2 2
left_child=3 2 9 4 8 -3 -7 -4 -1 10 -2
right_child=1 5 7 -5 -6 6 -8 -9 -10 -11 -12
leaf_value=-2119.1720716623163 -214.42712783813477 2709.6065867704506 1594.7341613769531 1641.0590893336707 -692.51969532796784 8736.3432350852254 2755.5814636230471 3945.9550227238578 -785.93468897294031 1314.3902994155885 1018.7216154399672
leaf_count=104 164 34 30 28 365 11 18 26 49 48 57
internal_value=0 24446.2 14549.5 -17059.5 -19755.8 75500.6 100483 53727.4 -33843.8 6393.44 2072.5
internal_count=934 388 325 546 518 63 29 56 153 269 221
shrinkage=0.05


Tree=21
num_leaves=12
num_cat=0
split_feature=6 4 0 2 2 2 0 7 4 2 6
split_gain=3.52647e+11 1.60703e+11 7.82401e+10 6.29831e+10 3.68347e+10 3.53996e+10 2.15607e+10 1.64457e+10 1.4571e+10 1.36615e+10 1.22877e+10
threshold=1979.5000000000002 665.50000000000011 10816.000000000002 1216.5000000000002 625.50000000000011 879.00000000000011 11344.500000000002 7.5000000000000009 1.0000000180025095e-35 1179.5000000000002 2004.5000000000002
decision_type=2 2 2 2 2 2 2 2 2 2 2
left_child=2 5 8 6 -4 7 -3 -2 -1 -6 -9
right_child=1 3 4 -5 9 -7 -8 10 -10 -11 -12
leaf_value=-1964.9646496112532 -77.768290491509276 1362.9959809736774 -473.2011474852867 5487.1328239889708 715.69826739088023 1733.4809383889906 2815.123484176886 372.01682985479187 -1066.2617886100095 2547.0589270958535 1798.1231065833051
leaf_count=52 153 44 94 17 47 46 61 44 340 13 23
internal_value=0 23223.9 -16206.5 53274.7 2892.04 9441.14 44132.3 4166.09 -23709.5 22249.9 17231.5
internal_count=934 388 546 122 154 266 105 220 392 60 67
shrinkage=0.05


Tree=22
num_leaves=12
num_cat=0
split_feature=1 2 2 3 3 3 2 4 2 3 3
split_gain=3.28281e+11 1.78752e+11 1.28031e+11 8.1701e+10 4.02781e+10 3.59294e+10 2.54e+10 2.19809e+10 1.70028e+10 1.51294e+10 1.40303e+10
threshold=1457.5000000000002 777.50000000000011 1179.5000000000002 1683.0000000000002 1059.0000000000002 992.50000000000011 578.00000000000011 795.50000000000011 546.50000000000011 786.00000000000011 728.50000000000011
decision_type=2 2 2 2 2 2 2 2 2 2 2
left_child=1 5 3 8 9 6 10 -5 -2 -3 -1
right_child=2 4 -4 7 -6 -7 -8 -9 -10 -11 -12
leaf_value=-1996.672556152344 335.12615409383972 -612.63183353969032 5945.2055549172801 2093.9592736285667 2041.6256374844638 -404.07855393031861 -547.52910078788295 3935.8877626953126 2093.0906768798827 719.96992369233897 -1216.3161370849609
leaf_count=90 98 28 17 46 55 212 98 25 16 89 160
internal_value=0 -9683.62 35853.4 28221.7 18513.1 -18344.1 -24595.9 54850.5 11637.2 8021.13 -29944.9
internal_count=934 732 202 185 172 560 348 71 114 117 250
shrinkage=0.05


Tree=23
num_leaves=12
num_cat=0
split_feature=6 1 1 4 4 4 1 1 6 1 1
split_gain=2.96784e+11 1.59115e+11 7.00162e+10 3.89628e+10 3.78593e+10 8.60231e+10 2.72268e+10 2.14466e+10 1.75501e+10 1.63882e+10 1.20288e+10
threshold=1979.5000000000002 1689.5000000000002 1431.5000000000002 607.00000000000011 795.50000000000011 861.00000000000011 864.50000000000011 1846.0000000000002 2004.5000000000002 1007.5000000000001 1619.5000000000002
decision_type=2 2 2 2 2 2 2 2 2 2 2
left_child=2 3 6 9 8 -6 -1 10 -3 -2 -4
right_child=1 4 7 -5 5 -7 -8 -9 -10 -11 -12
leaf_value=-1576.7579198808814 -252.33062505722046 943.53422943115243 738.71923797607428 1412.5884820204517 7920.5662760416644 2391.3781723920038 -733.10149187784714 2275.4676849365237 3206.0079199218753 617.83344186352144 -716.85897993607955
leaf_count=134 96 15 40 104 12 17 334 16 20 124 22
internal_value=0 21302.6 -14870.2 12302.3 66866.7 93586.4 -19493.2 12868 44727.5 4762.51 4444.47
internal_count=934 388 546 324 64 29 468 78 35 220 62
shrinkage=0.05


Tree=24
num_leaves=12
num_cat=0
split_feature=3 2 3 3 0 2 3 5 0 2 3
split_gain=2.58737e+11 1.81258e+11 8.03579e+10 5.76615e+10 3.25413e+10 2.13581e+10 2.3595e+10 1.71516e+10 1.36305e+10 1.27141e+10 1.24221e+10
threshold=1683.0000000000002 777.50000000000011 1159.5000000000002 1079.5000000000002 12785.000000000002 578.00000000000011 865.00000000000011 8.5000000000000018 7235.5000000000009 1341.5000000000002 1477.5000000000002
decision_type=2 2 2 2 2 2 2 2 2 2 2
left_child=1 2 5 8 -2 6 -1 -6 -3 -5 -4
right_child=4 3 10 9 7 -7 -8 -9 -10 -11 -12
leaf_value=-1593.1148112151584 1741.3918585699957 -999.91701398577015 -71.79877191372772 1945.2518288352273 2936.7945418648101 -396.31126744093098 -773.19387515975575 5068.5149169921879 654.85542520114359 3683.9116891714243 766.22691273833777
leaf_count=177 37 14 134 55 23 113 174 16 112 13 66
internal_value=0 -4804.79 -12661.2 22085 56072.1 -19883.6 -23733.2 76226.9 9419.84 45552.9 4094.99
internal_count=934 858 664 194 76 464 351 39 126 68 200
shrinkage=0.05


Tree=25
num_leaves=12
num_cat=0
split_feature=1 2 1 2 5 2 4 0 4 2 1
split_gain=2.36459e+11 1.20493e+11 7.82889e+10 3.98885e+10 3.38014e+10 2.06651e+10 1.62861e+10 1.47543e+10 1.38401e+10 1.07194e+10 1.05571e+10
threshold=1846.0000000000002 777.50000000000011 1250.0000000000002 1309.0000000000002 9.5000000000000018 578.00000000000011 237.00000000000003 7235.5000000000009 401.00000000000006 454.50000000000006 960.50000000000011
decision_type=2 2 2 2 2 2 2 2 2 2 2
left_child=1 2 5 7 -2 6 -1 -3 -4 -10 -9
right_child=4 3 8 -5 -6 -7 -8 10 9 -11 -12
leaf_value=-1838.6539573932519 2717.4225929260256 -887.12357395717083 -719.80148768569495 3140.0108610365128 5829.125 -273.46103751137144 -920.57521942841561 285.37184726345924 293.42655744552616 1833.3410522460938 1108.2015429251535
leaf_count=58 32 14 33 18 12 105 289 62 194 12 105
internal_value=0 -3776.98 -10021.1 17905 71321.4 -17761.1 -21480.6 13440.3 4616.85 7662.61 16054.4
internal_count=934 890 691 199 44 452 347 181 239 206 167
shrinkage=0.05


Tree=26
num_leaves=12
num_cat=0
split_feature=1 2 3 3 2 2 7 3 7 3 1
split_gain=2.13405e+11 1.08745e+11 7.70989e+10 4.43402e+10 2.34228e+10 1.95192e+10 1.94684e+10 1.93003e+10 1.91184e+10 1.75703e+10 1.14162e+10
threshold=1846.0000000000002 777.50000000000011 1238.5000000000002 1059.0000000000002 578.00000000000011 1309.0000000000002 7.5000000000000009 1924.0000000000002 7.5000000000000009 728.50000000000011 1689.5000000000002
decision_type=2 2 2 2 2 2 2 2 2 2 2
left_child=1 2 4 -3 9 -5 7 -2 -4 -1 -10
right_child=6 3 8 5 -6 -7 -8 -9 10 -11 -12
leaf_value=-1599.3677031309708 2335.1792702414773 336.60297422055851 -1.9480828810107802 1430.3223406473796 -175.05834806306024 3446.8796325683597 1670.2787796020509 4920.5406622023811 675.80225760981727 -805.99247019414679 2199.7061809539796
leaf_count=92 11 135 129 48 112 16 12 21 53 289 16
internal_value=0 -3588.13 -9520.08 17009.7 -16214.2 38689.2 67755.3 80636.5 7147.63 -19951.4 20583.4
internal_count=934 890 691 199 493 64 44 32 198 381 69
shrinkage=0.05


Tree=27
num_leaves=12
num_cat=0
split_feature=1 2 1 2 2 7 4 7 0 4 1
split_gain=1.92598e+11 9.81425e+10 6.60984e+10 3.23e+10 1.87097e+10 1.75702e+10 1.55439e+10 1.54375e+10 1.30563e+10 1.1851e+10 9.75561e+09
threshold=1846.0000000000002 777.50000000000011 1163.5000000000002 1309.0000000000002 578.00000000000011 7.5000000000000009 795.50000000000011 9.5000000000000018 7235.5000000000009 237.00000000000003 1403.5000000000002
decision_type=2 2 2 2 2 2 2 2 2 2 2
left_child=1 2 4 8 9 6 -2 -4 -3 -1 -9
right_child=5 3 7 -5 -6 -7 -8 10 -10 -11 -12
leaf_value=-1713.5418846799619 3032.6736194428945 -859.59755205426904 -42.595757609730491 2827.945647515191 -277.97426065879296 1586.7648523966473 5352.8419921875002 -49.563568653779875 730.03560035271562 -912.78874819395969 1424.7869645552203
leaf_count=57 21 14 239 18 101 12 11 17 167 244 33
internal_value=0 -3408.72 -9044.07 16159.3 -17336.7 64367.5 76604.6 2491 12141.6 -21288.5 18470.2
internal_count=934 890 691 199 402 44 32 289 181 301 50
shrinkage=0.05


Tree=28
num_leaves=12
num_cat=0
split_feature=6 1 1 2 7 2 6 1 1 5 6
split_gain=1.81738e+11 1.02756e+11 4.25245e+10 3.46419e+10 2.91941e+10 2.8235e+10 2.38134e+10 2.24737e+10 2.15477e+10 2.003e+10 1.90397e+10
threshold=1986.5000000000002 1846.0000000000002 1777.5000000000002 879.00000000000011 9.5000000000000018 578.00000000000011 2005.5000000000002 1431.5000000000002 1224.5000000000002 8.5000000000000018 1958.5000000000002
decision_type=2 2 2 2 2 2 2 2 2 2 2
left_child=2 3 5 4 -2 10 -6 -7 -5 -3 -1
right_child=1 9 -4 8 6 7 -8 -9 -10 -11 -12
leaf_value=-1203.9282918049739 95.869014432745161 2529.3267773437497 1539.8371641739557 964.03169655635452 440.52195074898856 -254.54221233538729 2918.8965454101562 1922.87822265625 2696.277886962891 5210.7948016826922 -514.38410575797525
leaf_count=208 212 15 23 58 21 134 18 13 26 13 193
internal_value=0 17290 -11327.1 12425.8 6543.05 -13095.1 31687.7 -1239.62 30004.1 75485.9 -17441.1
internal_count=934 363 571 335 251 548 39 147 84 28 401
shrinkage=0.05


Tree=29
num_leaves=12
num_cat=0
split_feature=3 2 3 3 5 2 2 3 3 3 0
split_gain=1.48174e+11 8.90778e+10 5.54475e+10 3.25458e+10 2.68689e+10 1.78068e+10 1.4347e+10 1.25227e+10 1.13247e+10 7.96891e+09 7.85371e+09
threshold=1804.5000000000002 777.50000000000011 1159.5000000000002 1095.5000000000002 8.5000000000000018 578.00000000000011 1309.0000000000002 728.50000000000011 699.00000000000011 1413.5000000000002 7235.5000000000009
decision_type=2 2 2 2 2 2 2 2 2 2 2
left_child=1 2 5 8 -2 7 -5 -1 -3 -4 -10
right_child=4 3 9 6 -6 -7 -8 -9 10 -11 -12
leaf_value=-1421.7735149383545 1925.4980821736656 -1177.4480779474432 -89.4690367238275 1284.0327049077944 4517.2575911458334 -194.16727664706946 3037.8406250000003 -739.85007139411118 -786.76964333274145 495.35526287209279 608.65190907864542
leaf_count=92 30 11 116 43 15 111 16 251 11 117 121
internal_value=0 -3028.58 -8456.48 15431.6 55788.4 -14892.4 35192.8 -18455.1 7278.39 4083.96 9847.34
internal_count=934 889 687 202 45 454 59 343 143 233 132
shrinkage=0.05


Tree=30
num_leaves=12
num_cat=0
split_feature=3 3 5 4 5 0 3 0 7 0 4
split_gain=1.81014e+11 8.82238e+10 4.85607e+10 2.42488e+10 2.04915e+10 2.04287e+10 1.515e+10 1.44903e+10 1.30906e+10 1.15483e+10 1.14975e+10
threshold=1297.0000000000002 1924.0000000000002 6.5000000000000009 795.50000000000011 8.5000000000000018 13584.000000000002 493.50000000000006 7235.5000000000009 7.5000000000000009 15405.000000000002 237.00000000000003
decision_type=2 2 2 2 2 2 2 2 2 2 2
left_child=2 5 6 7 -3 8 -1 -4 -2 -7 -8
right_child=1 4 3 -5 -6 9 10 -9 -10 -11 -12
leaf_value=-1829.9856714709051 258.80053236375164 2568.1598697916661 -905.63632598052163 1907.7897393120661 5280.3396559495195 2797.3323385799631 -1369.3834045410158 166.34537568428149 1164.1784534272695 1193.2264315171676 -542.57164154952966
leaf_count=29 109 15 37 18 13 17 48 213 63 33 339
internal_value=0 23652 -7791.48 2706.21 76547.7 16980.5 -14554.4 153.842 11808.4 34772.4 -12902.4
internal_count=934 250 684 268 28 222 416 250 172 50 387
shrinkage=0.05


Tree=31
num_leaves=12
num_cat=0
split_feature=3 3 2 2 5 3 3 3 2 4 3
split_gain=1.63365e+11 7.9622e+10 7.82293e+10 3.25038e+10 1.84936e+10 1.6972e+10 1.32676e+10 1.31346e+10 1.29521e+10 1.12811e+10 7.76361e+09
threshold=1297.0000000000002 1924.0000000000002 794.00000000000011 488.50000000000006 8.5000000000000018 786.00000000000011 493.50000000000006 1389.5000000000002 1179.5000000000002 209.00000000000003 1683.0000000000002
decision_type=2 2 2 2 2 2 2 2 2 2 2
left_child=2 3 6 10 -3 -4 -1 -5 -7 -8 -2
right_child=1 4 5 7 -6 8 9 -9 -10 -11 -12
leaf_value=-1495.6702423805416 361.57063728305076 2439.7518880208331 -471.36311841692242 1017.1888615534856 5016.3225585937507 672.33959666131773 -1276.104773594783 3058.6866174316406 2093.1142128392271 -497.25699994515185 1088.0786784667969
leaf_count=43 139 15 28 13 13 103 52 20 19 439 50
internal_value=0 22469.4 -7401.9 16131.5 72720.3 12776.3 -13069.9 45089.2 17872.2 -11594.8 11075.4
internal_count=934 250 684 222 28 150 534 33 122 491 189
shrinkage=0.05


Tree=32
num_leaves=12
num_cat=0
split_feature=6 3 6 2 4 3 6 3 2 3 2
split_gain=1.58397e+11 1.06019e+11 3.48962e+10 2.68981e+10 2.64841e+10 2.33557e+10 1.6081e+10 1.49109e+10 1.17042e+10 1.23864e+10 1.16777e+10
threshold=1991.5000000000002 1924.0000000000002 2007.5000000000002 625.50000000000011 528.50000000000011 865.00000000000011 1920.5000000000002 1413.5000000000002 940.50000000000011 1213.0000000000002 1034.5000000000002
decision_type=2 2 2 2 2 2 2 2 2 2 2
left_child=3 2 4 5 -2 -1 10 -4 -6 -10 -5
right_child=1 -3 7 6 8 -7 -8 -9 9 -11 -12
leaf_value=-1116.4468537530236 -23.507786398222954 4321.8009068080355 1277.1747126652642 -1208.6966025797526 708.61279992768266 -374.6496997275508 479.82529978896639 3721.3306803385417 1057.6345979110054 3039.2648763020834 695.8169389204545
leaf_count=172 132 21 13 30 132 277 99 12 23 12 11
internal_value=0 17579.6 13116.7 -9402.75 10115.8 -13176.3 2699.4 49007.4 18483.1 34741 -13954.6
internal_count=934 345 324 589 299 449 140 25 167 35 41
shrinkage=0.05


Tree=33
num_leaves=12
num_cat=0
split_feature=3 2 3 2 4 3 1 2 3 1 0
split_gain=1.35953e+11 6.53452e+10 6.50319e+10 2.71775e+10 1.50705e+10 1.49747e+10 1.27879e+10 1.22177e+10 1.12684e+10 1.16148e+10 7.34632e+09
threshold=1297.0000000000002 794.00000000000011 1924.0000000000002 488.50000000000006 825.50000000000011 786.00000000000011 1045.5000000000002 1140.5000000000002 493.50000000000006 1144.5000000000002 13584.000000000002
decision_type=2 2 2 2 2 2 2 2 2 2 2
left_child=1 8 3 10 -4 -3 -7 -5 -1 -10 -2
right_child=2 5 4 7 -6 6 -8 -9 9 -11 -12
leaf_value=-1373.0602912015693 358.43045663709768 -458.62611552647189 4228.4025620404409 2940.4068250868058 1853.2469904119321 319.93312808621317 1343.8804166666669 1008.2584358723958 -664.96980837347678 -94.16587128272424 1160.9239362444196
leaf_count=43 154 28 17 18 11 62 60 15 374 117 35
internal_value=0 -6758.2 20492 14764.1 65906.1 11683.6 16470.3 41243.2 -11938.5 -10579.1 10140.8
internal_count=934 684 250 222 28 150 122 33 534 491 189
shrinkage=0.05


Tree=34
num_leaves=12
num_cat=0
split_feature=6 1 6 1 2 2 6 6 6 3 3
split_gain=1.35396e+11 9.35266e+10 3.14726e+10 2.72013e+10 3.69528e+10 2.2932e+10 1.79477e+10 1.739e+10 1.61118e+10 1.5145e+10 1.39121e+10
threshold=1991.5000000000002 1689.5000000000002 2002.5000000000002 1431.5000000000002 1.0000000180025095e-35 879.00000000000011 1920.5000000000002 2007.5000000000002 2005.5000000000002 559.50000000000011 1213.0000000000002
decision_type=2 2 2 2 2 2 2 2 2 2 2
left_child=3 5 -3 6 -5 -2 -1 8 -4 -8 -7
right_child=1 2 7 4 -6 10 9 -9 -10 -11 -12
leaf_value=-1307.2373317823019 195.38099656491667 4896.543701171875 2767.5393960135325 -252.27911571557971 1991.4106860351565 897.37133276367194 -1359.1161007109142 3595.252268629808 577.75282738095245 -358.55393001154852 2733.4007211538465
leaf_count=73 222 12 14 69 25 50 42 13 21 380 13
internal_value=0 16240.7 52125.1 -8705.73 6888.94 8686.13 -11667.1 40673.6 29073.3 -9162.72 25524.7
internal_count=934 345 60 589 94 285 495 48 35 422 63
shrinkage=0.05


Tree=35
num_leaves=12
num_cat=0
split_feature=6 3 2 2 6 3 3 6 6 6 7
split_gain=9.01343e+10 3.55256e+10 3.08263e+10 2.07456e+10 2.05109e+10 1.40975e+10 1.34921e+10 1.17711e+10 1.03295e+10 1.40319e+10 9.09554e+09
threshold=1991.5000000000002 1580.5000000000002 625.50000000000011 940.50000000000011 2005.5000000000002 865.00000000000011 1050.5000000000002 1914.5000000000002 1998.5000000000002 2007.5000000000002 9.5000000000000018
decision_type=2 2 2 2 2 2 2 2 2 2 2
left_child=2 3 5 10 -5 -1 7 -4 -3 -10 -2
right_child=1 8 6 4 -6 -7 -8 -9 9 -11 -12
leaf_value=-952.30621355568496 16.258797139056185 2991.6023881392048 -1275.7977325439454 655.06124292322113 2901.9527308872766 -369.69427652291614 1255.8176557268416 234.73578748288361 983.38165794655129 2813.152786959135 894.11588997977128
leaf_count=164 188 11 15 37 14 283 28 92 54 13 35
internal_value=0 12602.1 -7669.42 7241.99 25437.1 -11669 5573.57 459.575 31431.1 26768.2 3080.78
internal_count=934 352 582 274 51 447 135 107 78 67 223
shrinkage=0.05


Tree=36
num_leaves=12
num_cat=0
split_feature=6 1 2 2 1 6 1 1 6 6 6
split_gain=8.17052e+10 3.3069e+10 2.30877e+10 2.12214e+10 2.24396e+10 1.82935e+10 1.40414e+10 1.13061e+10 9.60516e+09 1.03389e+10 9.55857e+09
threshold=1979.5000000000002 1619.5000000000002 845.00000000000011 674.00000000000011 1431.5000000000002 2005.5000000000002 767.50000000000011 1144.5000000000002 1918.5000000000002 1940.5000000000002 2007.5000000000002
decision_type=2 2 2 2 2 2 2 2 2 2 2
left_child=3 2 7 6 8 -4 -1 -2 -5 -10 -3
right_child=1 10 5 4 -6 -7 -8 -9 9 -11 -12
leaf_value=-1355.4574028793647 -376.50372560638743 1196.160187890189 612.45635868326826 -1005.9379067160867 1794.7550909745069 2349.3566444798521 -456.67262342075514 341.6329497091354 1143.6270288085939 -248.68656652450565 2672.4951998197121
leaf_count=49 97 70 75 22 19 19 384 126 20 40 13
internal_value=0 10778.5 6125.99 -8123.03 4929.66 19270.6 -11167.7 585.192 -2245.26 4308.36 28547.9
internal_count=934 400 317 534 101 94 433 223 82 60 83
shrinkage=0.05


Tree=37
num_leaves=12
num_cat=0
split_feature=6 1 0 0 4 0 4 4 6 4 1
split_gain=7.40787e+10 3.16882e+10 3.1571e+10 1.88687e+10 1.73087e+10 1.5697e+10 1.1625e+10 1.16201e+10 1.14442e+10 1.02522e+10 7.51863e+09
threshold=1993.5000000000002 1275.0000000000002 12174.000000000002 12785.000000000002 876.00000000000011 27438.000000000004 753.50000000000011 540.50000000000011 2007.5000000000002 1.0000000180025095e-35 1045.5000000000002
decision_type=2 2 2 2 2 2 2 2 2 2 2
left_child=2 7 9 8 6 10 -5 -2 -3 -1 -4
right_child=1 3 5 4 -6 -7 -8 -9 -10 -11 -12
leaf_value=-1264.0342049947601 -278.85453986283187 594.30488978698202 -613.84297165643602 1612.3108222961428 266.16611550071025 2217.1415571732955 3518.305061340332 571.26730058458122 2064.1866666666665 -437.9159913600692 449.18667007446294
leaf_count=41 91 113 21 16 11 11 16 72 15 447 80
internal_value=0 11909.7 -6671.37 21419.5 39543.1 8470.14 51306.2 1933.19 15331.1 -10146.5 4563.21
internal_count=934 334 600 171 43 112 32 163 128 488 101
shrinkage=0.05


Tree=38
num_leaves=12
num_cat=0
split_feature=6 5 0 6 0 2 5 2 6 5 5
split_gain=6.7226e+10 2.80754e+10 2.36294e+10 1.95906e+10 1.62458e+10 1.45615e+10 1.4082e+10 8.68593e+09 1.02467e+10 5.66208e+09 5.5638e+09
threshold=1979.5000000000002 9.5000000000000018 13220.000000000002 2006.5000000000002 12174.000000000002 1179.5000000000002 4.5000000000000009 674.00000000000011 1914.5000000000002 7.5000000000000009 5.5000000000000009
decision_type=2 2 2 2 2 2 2 2 2 2 2
left_child=2 3 6 4 10 -3 -1 9 -9 -8 -2
right_child=1 5 -4 -5 -6 -7 7 8 -10 -11 -12
leaf_value=-1284.294066993863 -409.80317105379976 980.26740315755183 467.41964419639271 1213.8588059488934 882.98169426068876 3498.8140447443184 -458.40646963853106 -1261.6121053059896 330.55098247528076 -1288.3383101029831 161.59423332769404
leaf_count=51 55 12 73 60 73 11 312 12 64 22 189
internal_value=0 9777.07 -7368.08 7707.76 4571.6 43695.8 -10015.2 -8065.87 1583.14 -10261.5 655.913
internal_count=934 400 534 377 317 23 461 410 76 334 244
shrinkage=0.05


Tree=39
num_leaves=12
num_cat=0
split_feature=6 1 2 2 1 6 1 1 6 6 6
split_gain=6.06714e+10 2.57615e+10 1.94197e+10 1.72748e+10 1.95181e+10 1.48469e+10 1.19378e+10 8.67621e+09 8.09586e+09 9.18107e+09 8.00637e+09
threshold=1979.5000000000002 1619.5000000000002 845.00000000000011 674.00000000000011 1431.5000000000002 2005.5000000000002 767.50000000000011 1144.5000000000002 1918.5000000000002 1940.5000000000002 2007.5000000000002
decision_type=2 2 2 2 2 2 2 2 2 2 2
left_child=3 2 7 6 8 -4 -1 -2 -5 -10 -3
right_child=1 10 5 4 -6 -7 -8 -9 9 -11 -12
leaf_value=-1222.2773180280415 -350.4449924508321 1036.9644827488489 545.57882340494791 -916.19664854569874 1682.8158588610197 2110.3242046155428 -393.54966289103032 278.6500099182129 1079.7962805175782 -232.24409538269043 2388.1227238581732
leaf_count=49 97 70 75 22 19 19 384 126 20 40 13
internal_value=0 9288.22 5181.79 -6999.67 4776.9 17237.1 -9746.64 100.156 -1914.67 4102.05 24971.8
internal_count=934 400 317 534 101 94 433 223 82 60 83
shrinkage=0.05


Tree=40
num_leaves=12
num_cat=0
split_feature=6 1 4 4 1 6 4 7 3 4 4
split_gain=7.18358e+10 2.90915e+10 1.63143e+10 3.05051e+10 1.62651e+10 1.09911e+10 1.08325e+10 8.45202e+09 8.31814e+09 6.99254e+09 1.19766e+10
threshold=1991.5000000000002 1619.5000000000002 861.00000000000011 795.50000000000011 1045.5000000000002 2004.5000000000002 528.50000000000011 6.5000000000000009 1.0000000180025095e-35 825.50000000000011 687.50000000000011
decision_type=2 2 2 2 2 2 2 2 2 2 2
left_child=4 6 3 5 -1 -3 -2 -7 -6 10 -10
right_child=1 2 -4 -5 8 7 -8 -9 9 -11 -12
leaf_value=-608.32417280023753 -5.274325897580102 332.38112555609814 198.07912671942461 4124.8511088053383 -1321.4724684495193 1028.5298182169595 630.57898485277087 2905.1426818847658 -14.215970382976176 1061.4652396065849 -1628.9186431884766
leaf_count=286 126 18 19 12 13 12 143 12 267 14 12
internal_value=0 11459.5 29164 38031.5 -6744.66 25327.1 6654.89 39336.7 -1677.21 -578.988 -1673.31
internal_count=934 342 73 54 592 42 269 24 306 293 279
shrinkage=0.05


Tree=41
num_leaves=12
num_cat=0
split_feature=2 1 1 2 0 1 0 5 1 5 0
split_gain=5.65113e+10 5.00921e+10 3.19966e+10 2.5182e+10 1.08482e+10 8.39576e+09 7.55169e+09 1.53744e+10 1.83322e+10 6.88637e+09 8.00398e+09
threshold=1216.5000000000002 1457.5000000000002 1301.5000000000002 684.50000000000011 12174.000000000002 864.50000000000011 20662.500000000004 8.5000000000000018 1718.5000000000002 8.5000000000000018 7235.5000000000009
decision_type=2 2 2 2 2 2 2 2 2 2 2
left_child=2 -2 3 5 -4 -1 7 -6 -9 10 -5
right_child=1 -3 4 9 6 -7 -8 8 -10 -11 -12
leaf_value=-838.22310502312394 557.20705798466997 4410.9094970703127 122.71694752844306 -508.28197866586544 538.61243606998084 -354.79167856440426 -198.73506146599266 526.79124533913341 3300.2089336688705 -535.28520265776535 445.41768591954161
leaf_count=132 24 13 183 26 62 281 17 11 13 29 143
internal_value=0 38224.2 -1654.75 -5740.94 7074.83 -10186 15284.1 19091 40581.2 3530.92 5973.89
internal_count=934 37 897 611 286 413 103 86 24 198 169
shrinkage=0.05


Tree=42
num_leaves=12
num_cat=0
split_feature=6 2 0 3 2 6 3 6 2 2 3
split_gain=6.14215e+10 4.40113e+10 2.00052e+10 1.47591e+10 1.14791e+10 1.51143e+10 9.40566e+09 8.78914e+09 8.13976e+09 7.77878e+09 7.76246e+09
threshold=1991.5000000000002 1255.5000000000002 13584.000000000002 1580.5000000000002 354.50000000000006 1946.5000000000002 1621.0000000000002 1920.5000000000002 625.50000000000011 845.00000000000011 1059.0000000000002
decision_type=2 2 2 2 2 2 2 2 2 2 2
left_child=2 3 4 9 5 -1 -7 -6 10 -2 -4
right_child=1 -3 8 -5 7 6 -8 -9 -10 -11 -12
leaf_value=-1271.7354687818843 27.526806160499309 2936.3441897922094 -964.03330665001511 1011.0999742024741 -687.59530452806121 -361.14697219940922 -1740.855817119892 91.188006086829759 1207.2770268758138 636.67093165206916 446.77288444714668
leaf_count=67 174 18 13 75 49 248 13 139 24 75 39
internal_value=0 10598.1 -6234.88 7924.23 -8465.85 -12036.7 -8597.36 -2235.86 8912.2 4220.08 1881.43
internal_count=934 342 592 324 516 328 261 188 76 249 52
shrinkage=0.05


Tree=43
num_leaves=12
num_cat=0
split_feature=2 1 2 2 1 0 5 7 1 1 2
split_gain=4.74992e+10 3.1157e+10 1.986e+10 1.64664e+10 1.20544e+10 9.55008e+09 1.06567e+10 9.44446e+09 1.84911e+10 8.16769e+09 7.93067e+09
threshold=1426.5000000000002 1093.0000000000002 454.50000000000006 419.00000000000006 1576.5000000000002 11223.000000000002 6.5000000000000009 5.5000000000000009 1485.0000000000002 767.50000000000011 1057.0000000000002
decision_type=2 2 2 2 2 2 2 2 2 2 2
left_child=1 2 -1 4 -3 6 -6 10 -9 -4 -5
right_child=-2 3 9 7 5 -7 -8 8 -10 -11 -12
leaf_value=-686.59110605010289 3122.0821228027344 -153.63096772858077 -516.8905032127135 -314.08881917317711 1123.5503949846541 850.87236047274826 -496.02431219977302 663.81933218149049 2515.9736040900734 150.95970475551061 1164.4301588792066
leaf_count=216 12 224 62 30 14 69 37 65 17 175 13
internal_value=0 -881.227 -6796.16 4831.91 1260.1 9347.83 -1028.7 14661.6 20956.1 -475.043 2658.11
internal_count=934 922 453 469 344 120 51 125 82 237 43
shrinkage=0.05


Tree=44
num_leaves=12
num_cat=0
split_feature=2 1 2 2 7 2 3 1 2 7 0
split_gain=4.29293e+10 2.78962e+10 2.19418e+10 9.9485e+09 1.10629e+10 1.18036e+10 1.52659e+10 7.72586e+09 7.32688e+09 6.60046e+09 6.84642e+09
threshold=1341.5000000000002 1347.0000000000002 684.50000000000011 1000.5000000000001 2.5000000000000004 454.50000000000006 2093.5000000000005 864.50000000000011 715.00000000000011 9.5000000000000018 9008.5000000000018
decision_type=2 2 2 2 2 2 2 2 2 2 2
left_child=1 2 7 4 -3 6 9 -1 -7 -6 -11
right_child=-2 3 -4 -5 5 8 -8 -9 -10 10 -12
leaf_value=-747.09420271353292 2349.1658819901318 -825.7687442016603 190.05057667705501 1488.6685765316613 19.916474940152778 2252.711155348557 2083.9573658336294 -290.33555680921 499.36659712357954 1749.4483113606771 286.74286244710288
leaf_count=132 19 20 214 19 149 13 11 310 11 12 24
internal_value=0 -1041.22 -4510.66 7746.25 6002.43 8049.51 5486.36 -8534.86 28981.9 3334.35 15486.2
internal_count=934 915 656 259 240 220 196 442 24 185 36
shrinkage=0.05


Tree=45
num_leaves=12
num_cat=0
split_feature=6 2 3 4 3 6 2 4 2 4 2
split_gain=4.87547e+10 3.93965e+10 1.56397e+10 1.16282e+10 1.05849e+10 9.14968e+09 8.96793e+09 8.5931e+09 7.35968e+09 7.01782e+09 6.994e+09
threshold=1991.5000000000002 1341.5000000000002 1683.0000000000002 876.00000000000011 559.50000000000011 1926.5000000000002 879.00000000000011 572.50000000000011 354.50000000000006 386.00000000000006 598.00000000000011
decision_type=2 2 2 2 2 2 2 2 2 2 2
left_child=4 2 6 -4 -1 8 9 10 -6 -2 -7
right_child=1 -3 3 -5 5 7 -8 -9 -10 -11 -12
leaf_value=-981.1280125544622 -1133.8970774332681 3395.341264204546 1546.9557709484566 -122.027587890625 -1242.5464555140907 -147.75411815714216 720.57406948029052 -586.78289326259062 -360.65373056751412 111.53656873460955 377.28187736603149
leaf_count=52 12 11 41 14 35 269 63 84 73 197 83
internal_value=0 9043.06 7062.93 22442.5 -5991.84 -4688.9 3953.1 -2647.76 -12929 800.568 -479.06
internal_count=934 338 327 55 596 544 272 436 108 209 352
shrinkage=0.05


Tree=46
num_leaves=12
num_cat=0
split_feature=3 0 5 4 3 5 3 0 0 5 4
split_gain=3.77739e+10 2.18975e+10 1.36754e+10 1.67368e+10 4.13483e+10 8.88922e+09 7.15891e+09 5.80462e+09 5.67957e+09 6.78076e+09 5.33154e+09
threshold=1050.5000000000002 13584.000000000002 7.5000000000000009 839.50000000000011 1804.5000000000002 4.5000000000000009 1.0000000180025095e-35 9008.5000000000018 20662.500000000004 6.5000000000000009 453.50000000000006
decision_type=2 2 2 2 2 2 2 2 2 2 2
left_child=5 10 8 4 -4 -1 -7 -8 9 -3 -2
right_child=1 2 3 -5 -6 6 7 -9 -10 -11 -12
leaf_value=-880.23859664377619 -241.64756196848555 -321.51287347412108 774.32169969346774 9.9143554687500011 4563.3905507405607 -1117.0753467906604 -372.09274834025996 -5.0277889215550715 1494.8720392400569 913.667586669922 239.45876655732434
leaf_count=61 75 25 18 11 12 22 220 211 11 20 248
internal_value=0 6511.85 19688 33564.7 45799 -6272.04 -4746 -3847.85 9528.26 4549.12 2554.94
internal_count=934 420 97 41 30 514 453 431 56 45 323
shrinkage=0.05


Tree=47
num_leaves=12
num_cat=0
split_feature=2 3 2 2 3 0 3 0 3 1 3
split_gain=4.14757e+10 2.67551e+10 1.36493e+10 1.04802e+10 1.40862e+10 1.19384e+10 8.28468e+09 5.87695e+09 5.27504e+09 6.98842e+09 4.99483e+09
threshold=1426.5000000000002 1159.5000000000002 690.00000000000011 454.50000000000006 2093.5000000000005 17411.500000000004 1413.5000000000002 6953.0000000000009 1.0000000180025095e-35 1144.5000000000002 786.00000000000011
decision_type=2 2 2 2 2 2 2 2 2 2 2
left_child=1 2 8 4 -3 6 -5 -4 -1 -10 -9
right_child=-2 3 7 5 -6 -7 -8 10 9 -11 -12
leaf_value=-1137.8883548736574 2895.7136840820312 105.27399728705244 -666.04111593909886 843.23831307547425 1934.0878595525571 -510.58328302556822 2332.906094087873 -244.99445512732683 -462.80482966719802 132.18071824435532 349.27992757061338
leaf_count=24 12 246 23 28 11 11 14 49 331 58 127
internal_value=0 -1257.46 -5091.38 6311.44 3671 19115.1 26795.9 1712.05 -8369.55 -7481.85 3676.57
internal_count=934 922 612 310 257 53 42 199 413 389 176
shrinkage=0.05


Tree=48
num_leaves=12
num_cat=0
split_feature=6 5 6 0 3 6 4 0 3 3 5
split_gain=3.92713e+10 2.14873e+10 4.78242e+10 1.90247e+10 9.62977e+09 8.87644e+09 8.05439e+09 1.59867e+10 8.45794e+09 6.48503e+09 6.34616e+09
threshold=1991.5000000000002 9.5000000000000018 2006.5000000000002 20662.500000000004 1297.0000000000002 1902.0000000000002 572.50000000000011 12785.000000000002 1389.5000000000002 559.50000000000011 6.5000000000000009
decision_type=2 2 2 2 2 2 2 2 2 2 2
left_child=3 4 -3 5 -2 -1 7 9 -8 -7 -9
right_child=1 2 -4 -5 -6 6 8 10 -10 -11 -12
leaf_value=-1452.2718031939339 41.512441621746937 3755.9678135463164 -649.61679465553982 1082.2883320312501 598.57997827664235 -897.75619182143112 -475.20128458383925 58.758389045452248 -1657.8375629625823 -248.18204002334141 1114.0803829806191
leaf_count=17 171 14 11 25 142 43 74 29 19 361 28
internal_value=0 8138.15 36350.2 -5355.51 5884.79 -6537.7 -5847.03 -4134.45 -14336.3 -6346.4 11543.2
internal_count=934 338 25 596 313 571 554 461 93 404 57
shrinkage=0.05


Tree=49
num_leaves=12
num_cat=0
split_feature=2 3 2 0 2 3 3 5 3 0 3
split_gain=3.57688e+10 2.218e+10 1.17108e+10 9.44401e+09 7.47585e+09 5.80805e+09 4.47035e+09 3.91374e+09 6.36916e+09 3.83368e+09 6.04744e+09
threshold=1426.5000000000002 1159.5000000000002 354.50000000000006 12785.000000000002 454.50000000000006 672.50000000000011 907.50000000000011 6.5000000000000009 1580.5000000000002 9579.5000000000018 1413.5000000000002
decision_type=2 2 2 2 2 2 2 2 2 2 2
left_child=1 2 6 4 7 -4 -1 8 -3 10 -9
right_child=-2 3 5 -5 -6 -7 -8 9 -10 -11 -12
leaf_value=-665.94680593218118 2689.7745808919271 58.584213396297997 -431.33196691982988 725.16618123488001 892.83892324942144 86.189539350728282 -273.09374059295658 -716.00281871448851 1202.508850969587 -479.23237617755763 757.13474233526938
leaf_count=140 12 93 69 88 27 253 150 11 14 58 19
internal_value=0 -1154.75 -4645.51 5736.7 2261.64 -494.159 -9254.94 102.308 4165.13 -4837.72 4339.69
internal_count=934 922 612 310 222 322 290 195 107 88 30
shrinkage=0.05


Tree=50
num_leaves=12
num_cat=0
split_feature=6 3 2 3 1 6 2 1 3 6 2
split_gain=3.3628e+10 1.87742e+10 1.94501e+10 1.04649e+10 1.10064e+10 8.16584e+09 8.21045e+09 9.5231e+09 6.9237e+09 6.50551e+09 1.07993e+10
threshold=1971.5000000000002 1029.5000000000002 1341.5000000000002 1580.5000000000002 1506.0000000000002 1902.0000000000002 454.50000000000006 767.50000000000011 1118.5000000000002 2006.5000000000002 419.00000000000006
decision_type=2 2 2 2 2 2 2 2 2 2 2
left_child=3 -2 9 4 5 -1 7 -7 -6 10 -3
right_child=1 2 -4 -5 8 6 -8 -9 -10 -11 -12
leaf_value=-1445.8688110351563 -132.73543059117455 134.79450706842928 2583.0517522638493 -1440.3982849121094 1522.1567195012017 -1510.7120965576173 12.302780064792499 -373.99319735469982 -10.707362634995405 958.9168697357178 911.00359710693363
leaf_count=16 175 177 11 20 13 20 141 234 17 50 60
internal_value=0 5566.58 10394.5 -6435.13 -5420.49 -6770.21 -5873.11 -9269.97 13070.7 8812.87 6626.06
internal_count=934 473 298 461 441 411 395 254 30 287 237
shrinkage=0.05


Tree=51
num_leaves=12
num_cat=0
split_feature=6 3 2 3 1 0 1 6 2 1 3
split_gain=3.03493e+10 1.69438e+10 1.75538e+10 9.44455e+09 9.93331e+09 8.76827e+09 1.23722e+10 7.36967e+09 7.40993e+09 8.5946e+09 6.24864e+09
threshold=1971.5000000000002 1029.5000000000002 1341.5000000000002 1580.5000000000002 1506.0000000000002 12174.000000000002 1163.5000000000002 1902.0000000000002 454.50000000000006 767.50000000000011 1118.5000000000002
decision_type=2 2 2 2 2 2 2 2 2 2 2
left_child=3 -2 5 4 7 -3 -7 -1 9 -9 -6
right_child=1 2 -4 -5 10 6 -8 8 -10 -11 -12
leaf_value=-1373.5753860473633 -126.09865735735212 239.33626888954996 2453.8990620006216 -1368.3783715820314 1446.0488919771633 -719.94583573774867 1077.2287836023279 -1435.1765234375 11.687643649053912 -355.29353752299255 -10.171979118795957
leaf_count=16 175 202 11 20 13 11 74 20 141 234 17
internal_value=0 5288.25 9874.79 -6113.38 -5149.47 8372.23 16893.1 -6431.7 -5579.46 -8806.47 12417.1
internal_count=934 473 298 461 441 287 85 411 395 254 30
shrinkage=0.05


Tree=52
num_leaves=12
num_cat=0
split_feature=6 1 0 6 0 4 6 7 4 4 0
split_gain=2.73902e+10 1.52171e+10 1.48988e+10 1.53583e+10 3.0914e+10 1.62752e+10 1.18687e+10 6.70283e+09 6.64017e+09 8.20695e+09 6.81755e+09
threshold=1971.5000000000002 990.50000000000011 12174.000000000002 1996.5000000000002 15405.000000000002 607.00000000000011 2006.5000000000002 6.5000000000000009 1.0000000180025095e-35 495.50000000000006 11344.500000000002
decision_type=2 2 2 2 2 2 2 2 2 2 2
left_child=8 -2 -3 5 6 -4 7 -5 -1 10 -10
right_child=1 2 3 4 -6 -7 -8 -9 9 -11 -12
leaf_value=-828.42713335822611 -177.47729705704583 224.42755013490338 932.68165921297941 -203.41659197126114 -1489.9165934244793 3113.4464633396692 2406.6468733567458 1273.9608063641717 -208.56756847010251 -571.21634353637694 376.0055980920792
leaf_count=51 144 234 22 14 15 14 13 17 226 120 64
internal_value=0 5023.84 8776.32 19337.8 9405.82 35615.1 22770.9 12135.2 -5807.71 -4469.16 -1591.17
internal_count=934 473 329 95 59 36 44 31 461 410 290
shrinkage=0.05


Tree=53
num_leaves=12
num_cat=0
split_feature=2 7 4 4 7 4 4 0 5 2 0
split_gain=2.12565e+10 1.48969e+10 4.96287e+10 1.13206e+10 7.06871e+09 1.16878e+10 1.02947e+10 5.70216e+09 5.62032e+09 5.34096e+09 4.9118e+09
threshold=1057.0000000000002 9.5000000000000018 795.50000000000011 1.0000000180025095e-35 2.5000000000000004 795.50000000000011 775.00000000000011 11772.000000000002 5.5000000000000009 578.00000000000011 3936.0000000000005
decision_type=2 2 2 2 2 2 2 2 2 2 2
left_child=3 2 7 -1 6 8 -5 -2 9 -6 -10
right_child=1 -3 -4 4 5 -7 -8 -9 10 -11 -12
leaf_value=-759.36855258283947 -546.10989608764646 -662.41155482700901 3340.4048380533854 -251.23956759470812 -346.543410215638 762.07059713999433 -1932.105029296875 662.68261767578133 -652.80018721421561 635.25633402506514 80.491478524339684
leaf_count=58 16 14 18 53 181 48 11 25 24 15 471
internal_value=0 16077.5 23036.1 -1695.33 -720.814 152.318 -10802.8 3819.17 -895.839 -5428.11 898.759
internal_count=934 73 59 861 803 739 64 41 691 196 495
shrinkage=0.05


Tree=54
num_leaves=12
num_cat=0
split_feature=2 7 4 4 3 7 2 3 4 3 4
split_gain=1.9184e+10 1.34445e+10 4.47899e+10 1.02169e+10 7.2657e+09 7.13227e+09 1.0851e+10 7.26334e+09 1.26954e+10 5.76944e+09 5.33022e+09
threshold=1057.0000000000002 9.5000000000000018 795.50000000000011 1.0000000180025095e-35 1050.5000000000002 2.5000000000000004 419.00000000000006 1804.5000000000002 795.50000000000011 1297.0000000000002 629.00000000000011
decision_type=2 2 2 2 2 2 2 2 2 2 2
left_child=3 2 -2 -1 -5 10 7 -7 -9 -8 -6
right_child=1 -3 -4 4 5 6 9 8 -10 -11 -12
leaf_value=-721.40012670056581 181.41077151414825 -629.29098249162951 3173.3845920138892 -171.19099299750189 15.867057037353513 -6.7231818434771373 498.96698671538252 57.708830677379268 2079.4737526575727 1681.6927326202394 -1320.048487363543
leaf_count=58 41 14 18 439 16 255 29 22 12 16 14
internal_value=0 15273.6 21884.3 -1610.57 -684.774 2618.64 3945.27 1696.12 15425.5 18389.8 -12151.2
internal_count=934 73 59 861 803 364 334 289 34 45 30
shrinkage=0.05


Tree=55
num_leaves=12
num_cat=0
split_feature=2 1 1 4 2 3 2 7 2 3 7
split_gain=1.72029e+10 2.00045e+10 1.14089e+10 6.11759e+09 6.1979e+09 1.5088e+10 8.15401e+09 6.89481e+09 5.84997e+09 4.78921e+09 5.05979e+09
threshold=1057.0000000000002 1485.0000000000002 864.50000000000011 1.0000000180025095e-35 354.50000000000006 1095.5000000000002 909.00000000000011 7.5000000000000009 546.50000000000011 1477.5000000000002 5.5000000000000009
decision_type=2 2 2 2 2 2 2 2 2 2 2
left_child=2 -2 8 -4 9 6 -6 -8 -1 -5 -11
right_child=1 -3 3 4 5 -7 7 -9 -10 10 -12
leaf_value=-671.5965635725596 296.93696026888762 2356.8845149739586 -730.07891628558821 -150.19026582035016 311.79569965231008 1344.1135071326946 -107.23001899719239 -1584.5959228515626 -124.56216004894625 637.29185770670574 -13.267977493800473
leaf_count=103 55 15 26 324 116 29 28 11 93 45 89
internal_value=0 14767.1 -1532.19 436.173 1045.18 5947.24 2030.36 -10478.5 -8240.69 -924.208 4104.07
internal_count=934 70 864 668 642 184 155 39 196 458 134
shrinkage=0.05


Tree=56
num_leaves=12
num_cat=0
split_feature=6 6 0 3 3 6 2 2 6 4 0
split_gain=3.1846e+10 1.69144e+10 9.55647e+09 1.04209e+10 8.63007e+09 8.12132e+09 8.66069e+09 8.10538e+09 8.05249e+09 7.41967e+09 7.22074e+09
threshold=2007.5000000000002 1991.5000000000002 27438.000000000004 1621.0000000000002 1580.5000000000002 1920.5000000000002 578.00000000000011 1309.0000000000002 1940.5000000000002 901.00000000000011 10547.000000000002
decision_type=2 2 2 2 2 2 2 2 2 2 2
left_child=1 2 3 5 -2 -1 -7 9 10 -3 -8
right_child=4 7 -4 -5 -6 6 8 -9 -10 -11 -12
leaf_value=-697.68589339385164 891.55136108398426 123.52989085599887 1118.1208533653846 -1295.6386992081352 2642.8532023111984 -252.2627239099113 315.67095642089839 1366.906659749349 -5.2681871323358447 1392.994800313314 1899.0851603190106
leaf_count=74 17 282 13 23 12 372 18 15 84 12 12
internal_value=0 -1340.36 -4453.22 -5051.17 32324.6 -4194.35 -2708.36 4663.75 4917.29 3506.9 18980.7
internal_count=934 905 596 583 29 560 486 309 114 294 30
shrinkage=0.05


Tree=57
num_leaves=12
num_cat=0
split_feature=1 3 1 0 0 3 7 1 1 5 3
split_gain=1.5024e+10 1.04414e+10 7.19701e+09 5.35513e+09 3.83476e+09 5.35395e+09 4.23055e+09 4.37457e+09 3.81838e+09 3.34622e+09 3.07572e+09
threshold=1045.5000000000002 2093.5000000000005 602.50000000000011 13584.000000000002 15405.000000000002 1142.5000000000002 6.5000000000000009 1506.0000000000002 1541.5000000000002 5.5000000000000009 865.00000000000011
decision_type=2 2 2 2 2 2 2 2 2 2 2
left_child=2 3 -1 -2 5 -5 8 -8 -6 10 -4
right_child=1 -3 9 4 6 -7 7 -9 -10 -11 -12
leaf_value=-1281.1497680664063 46.657971187693647 1562.0051936222958 -549.72547470793438 -106.14901234019888 988.02898414248523 1189.3644385502255 -883.57003119332421 448.8689098011364 -37.246536254882812 -79.880678407385005 -92.790641454922948
leaf_count=16 411 13 98 11 21 29 14 11 16 235 59
internal_value=0 3251.96 -4834.22 2542.71 9028.27 16662 4103.3 -5945.94 10893.3 -3985.7 -7560.22
internal_count=934 526 408 513 102 40 62 25 37 392 157
shrinkage=0.05


Tree=58
num_leaves=12
num_cat=0
split_feature=6 6 0 3 1 6 3 0 6 1 6
split_gain=2.85026e+10 1.46453e+10 8.29628e+09 9.81631e+09 7.66662e+09 7.31436e+09 7.35086e+09 5.83938e+09 1.17447e+10 2.03758e+10 8.06207e+09
threshold=2007.5000000000002 1991.5000000000002 27438.000000000004 1621.0000000000002 1619.5000000000002 1920.5000000000002 559.50000000000011 9294.0000000000018 1996.5000000000002 1485.0000000000002 2006.5000000000002
decision_type=2 2 2 2 2 2 2 2 2 2 2
left_child=1 2 3 5 -2 -1 -7 -3 9 -9 -10
right_child=4 7 -4 -5 -6 6 -8 8 10 -11 -12
leaf_value=-656.95497835520155 846.64900333180128 -28.564036011695862 1041.6684645432692 -1247.8148341966712 2497.302408854167 -763.9844855331794 -64.327569982335817 435.93773209498477 349.5537980038896 3003.0541293057531 -760.88083977950248
leaf_count=74 17 136 13 23 12 41 445 26 117 11 19
internal_value=0 -1255.19 -4151.74 -4708.87 30593.6 -3877.28 -2467.04 4331.67 8186.02 23982.7 3888.39
internal_count=934 905 596 583 29 560 486 309 173 37 136
shrinkage=0.05


Tree=59
num_leaves=12
num_cat=0
split_feature=6 6 3 4 4 0 0 4 6 3 5
split_gain=2.57236e+10 1.33113e+10 6.91912e+09 6.7019e+09 1.01732e+10 2.07592e+10 6.36148e+09 9.19485e+09 5.80422e+09 5.82698e+09 5.31506e+09
threshold=2007.5000000000002 1971.5000000000002 1580.5000000000002 901.00000000000011 861.00000000000011 17411.500000000004 14113.500000000002 564.50000000000011 1902.0000000000002 1389.5000000000002 4.5000000000000009
decision_type=2 2 2 2 2 2 2 2 2 2 2
left_child=1 6 -2 4 5 -3 8 -8 -1 10 -10
right_child=2 3 -4 -5 -6 -7 7 -9 9 -11 -12
leaf_value=-1243.4086399793625 804.3165584788602 90.913517571210875 2372.4373046875003 1304.5096954345704 -1270.8170494666467 2292.6738747336649 700.29409344647388 -767.27171824137372 -734.1241433546279 -1027.6908920923868 -155.06947155458383
leaf_count=16 17 400 12 12 13 11 37 15 45 24 332
internal_value=0 -1192.43 29063.9 2785.24 2125.67 2996.83 -4890.23 5539.16 -6190.78 -5445.55 -4483.75
internal_count=934 905 29 436 424 411 469 52 417 401 377
shrinkage=0.05


Tree=60
num_leaves=12
num_cat=0
split_feature=6 1 5 0 1 6 1 7 7 5 1
split_gain=1.72872e+10 7.67977e+09 8.54415e+09 2.3681e+10 1.94536e+10 7.00829e+09 6.87693e+09 5.85154e+09 4.45824e+09 3.71089e+09 3.4672e+09
threshold=1971.5000000000002 1007.5000000000001 10.500000000000002 15405.000000000002 1689.5000000000002 2006.5000000000002 1777.5000000000002 9.5000000000000018 1.5000000000000002 9.5000000000000018 663.50000000000011
decision_type=2 2 2 2 2 2 2 2 2 2 2
left_child=6 -2 3 5 -5 -3 8 -7 -1 10 -10
right_child=1 2 -4 4 -6 7 -8 -9 9 -11 -12
leaf_value=-960.44686381022132 -86.479522438049329 167.29021318810328 -819.38645426432288 706.61598968505848 3438.0820512251421 475.24262451171876 805.76223907470705 1684.7404702322824 -821.44387847900407 -895.80074912623354 -145.55378550555255
leaf_count=21 145 252 15 16 11 35 16 14 20 19 370
internal_value=0 4371.78 6951.08 8018.4 36388.7 5473.55 -4241.31 16416.3 -4998.76 -4269.14 -3604.3
internal_count=934 488 343 328 27 301 446 49 430 409 390
shrinkage=0.05


Tree=61
num_leaves=12
num_cat=0
split_feature=6 4 1 1 6 0 1 1 5 4 5
split_gain=1.56017e+10 8.7158e+09 2.05494e+10 1.93797e+10 9.82112e+09 6.35331e+09 6.20643e+09 4.87766e+09 4.03792e+09 4.34723e+09 3.05773e+09
threshold=1971.5000000000002 876.00000000000011 1655.0000000000002 1974.5000000000002 2007.5000000000002 17411.500000000004 1777.5000000000002 990.50000000000011 9.5000000000000018 1.0000000180025095e-35 5.5000000000000009
decision_type=2 2 2 2 2 2 2 2 2 2 2
left_child=6 3 -3 4 5 7 8 -2 9 -1 -11
right_child=1 2 -4 -5 -6 -7 -8 -9 -10 10 -12
leaf_value=-679.24583592969327 -155.84862857470438 763.26825506036903 -2292.9745805220168 1910.6745623420265 1197.2254941193955 1270.6561177571616 765.47411346435547 217.13895764615802 -931.17306640624997 -343.90442171910013 -41.617671163142234
leaf_count=43 126 11 11 17 23 12 16 288 20 129 238
internal_value=0 4153.19 -15297.1 5071.44 3816.62 2729.9 -4029.24 2072.42 -4748.82 -4072.01 -2957.42
internal_count=934 488 22 466 449 426 446 414 430 410 367
shrinkage=0.05


Tree=62
num_leaves=12
num_cat=0
split_feature=6 4 2 6 7 2 5 4 6 2 6
split_gain=1.40806e+10 7.86601e+09 2.52497e+10 1.27491e+10 4.73813e+09 5.04123e+09 6.00891e+09 3.3446e+09 3.2322e+09 4.52068e+09 5.50717e+09
threshold=1971.5000000000002 876.00000000000011 1341.5000000000002 2007.5000000000002 1.5000000000000002 1034.5000000000002 9.5000000000000018 453.50000000000006 1920.5000000000002 1.0000000180025095e-35 1946.5000000000002
decision_type=2 2 2 2 2 2 2 2 2 2 2
left_child=4 2 3 7 -1 6 8 -2 -6 -10 -11
right_child=1 -3 -4 -5 5 -7 -8 -9 9 10 -12
leaf_value=-906.83620203191595 -137.06009425550403 -726.6105252352628 2413.5078284630413 1276.0654121093751 -514.52867245944049 746.00025878906263 -1205.267152622768 192.11689157465003 -215.89702359211597 523.46928017356174 -201.57157620239261
leaf_count=22 101 22 13 25 53 15 14 327 237 55 50
internal_value=0 3945.53 4817.87 3570.9 -3827.78 -3085.34 -3745.68 2288.75 -3024.07 -1897.97 3564.23
internal_count=934 488 466 453 446 424 409 428 395 342 105
shrinkage=0.05


Tree=63
num_leaves=12
num_cat=0
split_feature=5 3 1 2 3 5 1 5 2 1 2
split_gain=1.09535e+10 1.45414e+10 8.99168e+09 1.24663e+10 1.07924e+10 9.20971e+09 7.31424e+09 1.87676e+10 4.71138e+09 3.56611e+09 2.58749e+09
threshold=11.500000000000002 2093.5000000000005 767.50000000000011 454.50000000000006 1213.0000000000002 8.5000000000000018 1619.5000000000002 6.5000000000000009 1090.0000000000002 1846.0000000000002 488.50000000000006
decision_type=2 2 2 2 2 2 2 2 2 2 2
left_child=1 2 10 5 -5 6 -4 -8 -6 -9 -1
right_child=-2 -3 3 4 8 -7 7 9 -10 -11 -12
leaf_value=-969.99287479945599 -1557.3732843572443 1524.0150726318361 -144.42365121555108 181.51151823899386 1540.4766655661842 -1521.9203813032673 1547.9853609720867 -279.98418471392466 546.2926409794735 647.70071927584138 -329.12394353472996
leaf_count=21 11 16 433 243 22 11 24 51 26 13 63
internal_value=0 595.817 68.638 1074.54 6336.87 -1803.91 -1199.34 7111.95 20039.2 -1830.96 -9786.82
internal_count=934 923 907 823 291 532 521 88 48 64 84
shrinkage=0.05


Tree=64
num_leaves=12
num_cat=0
split_feature=6 2 1 6 1 2 7 7 2 6 7
split_gain=1.20259e+10 6.00645e+09 5.24648e+09 5.1521e+09 3.82548e+09 3.70278e+09 5.83631e+09 7.52272e+09 7.47254e+09 5.08532e+09 3.61268e+09
threshold=1971.5000000000002 1341.5000000000002 1777.5000000000002 2008.5000000000002 1007.5000000000001 1.0000000180025095e-35 5.5000000000000009 6.5000000000000009 909.00000000000011 1949.5000000000002 10.500000000000002
decision_type=2 2 2 2 2 2 2 2 2 2 2
left_child=2 3 5 4 -2 9 -7 -8 -9 -1 -11
right_child=1 -3 -4 -5 -6 6 7 8 -10 10 -12
leaf_value=-702.35330218146828 -99.995427792314175 1167.1031408691406 711.89040069580085 1032.7461019515993 215.09577175726338 -429.28134512979477 856.45770833333336 161.258346120862 -1038.045048046112 -122.7427913917039 -850.36520578484783
leaf_count=68 138 15 16 16 319 61 30 69 16 167 19
internal_value=0 3641.26 -3542.56 3016.5 2398.96 -4204.16 -678.901 3515.1 -1289.86 -6646.85 -3941.4
internal_count=934 488 446 473 457 430 176 115 85 254 186
shrinkage=0.05


Tree=65
num_leaves=12
num_cat=0
split_feature=2 6 2 6 6 5 3 6 3 0 2
split_gain=1.44215e+10 6.58367e+09 6.55508e+09 7.7265e+09 6.14114e+09 6.27111e+09 5.25148e+09 5.61852e+09 6.81108e+09 7.98808e+09 3.83179e+09
threshold=1341.5000000000002 2008.5000000000002 454.50000000000006 1951.5000000000002 1902.0000000000002 10.500000000000002 1159.5000000000002 1940.5000000000002 786.00000000000011 7235.5000000000009 794.00000000000011
decision_type=2 2 2 2 2 2 2 2 2 2 2
left_child=1 2 3 -1 -4 6 7 8 -6 -10 -8
right_child=-2 -3 4 -5 5 -7 10 -9 9 -11 -12
leaf_value=-549.06998504899502 1550.5876578194757 1050.8864919809196 -976.39514254056485 -92.554769976149771 17.832134920008041 -904.13107822963184 1507.3395296963779 -24.814064413196636 32.631103197733552 1680.4319578471936 411.35215759277344
leaf_count=117 14 13 13 446 34 14 11 212 12 19 29
internal_value=0 -1326.84 -1647.1 -3748.51 1792.12 2629.46 3544.19 1997.51 10131.1 20851.5 14255
internal_count=934 920 907 563 344 331 317 277 65 31 40
shrinkage=0.05


Tree=66
num_leaves=12
num_cat=0
split_feature=3 4 3 5 3 0 4 0 5 4 7
split_gain=5.70036e+09 5.51814e+09 2.05069e+10 3.0516e+10 1.09353e+10 5.10783e+09 4.25036e+09 2.7482e+09 2.4666e+09 3.52436e+09 7.20888e+09
threshold=1.0000000180025095e-35 876.00000000000011 1804.5000000000002 7.5000000000000009 1804.5000000000002 20662.500000000004 1.0000000180025095e-35 3936.0000000000005 5.5000000000000009 242.00000000000003 5.5000000000000009
decision_type=2 2 2 2 2 2 2 2 2 2 2
left_child=-1 2 5 -4 -3 6 -2 -8 -9 10 -10
right_child=1 4 3 -5 -6 -7 7 8 9 -11 -12
leaf_value=-784.83439916992188 -489.51390836542305 -36.792688496907552 -729.67172475961547 2325.8438079833986 -1940.5791817405006 690.50320341690735 -396.5598078669334 -166.5095617923221 -431.63105672200521 12.282202960798132 1104.6143057686943
leaf_count=25 55 24 13 22 11 23 49 185 12 494 21
internal_value=0 -390.302 102.75 23818.8 -12702.5 -886.595 -1300.84 -687.279 -188.751 914.032 10919.6
internal_count=934 909 874 35 35 839 816 761 712 527 33
shrinkage=0.05


Tree=67
num_leaves=12
num_cat=0
split_feature=2 1 2 0 2 2 1 7 4 1 0
split_gain=1.25872e+10 5.07827e+09 6.57092e+09 6.66153e+09 5.66901e+09 1.52691e+10 1.13879e+10 6.3842e+09 7.96763e+09 4.81043e+09 5.46372e+09
threshold=1341.5000000000002 695.00000000000011 454.50000000000006 27438.000000000004 909.00000000000011 973.00000000000011 1431.5000000000002 10.500000000000002 825.50000000000011 2128.5000000000005 16303.000000000002
decision_type=2 2 2 2 2 2 2 2 2 2 2
left_child=1 -1 3 9 6 -6 -4 8 -7 10 -3
right_child=-2 2 4 -5 5 7 -8 -9 -10 -11 -12
leaf_value=-555.91626225685593 1449.9612461635045 -149.76408334991308 192.76286035547116 1082.8941406250001 -1439.6255542955901 74.844435363120226 1620.4294781494141 -775.40285644531252 1473.4321739783654 830.23035481770842 -972.54351777576267
leaf_count=49 14 515 203 11 19 47 15 15 13 12 21
internal_value=0 -1212.86 -655.606 -2707.6 3020.88 -3470.56 5819.94 2944.34 7557.44 -3196.68 -3640
internal_count=934 920 871 559 312 94 218 75 60 548 536
shrinkage=0.05


Tree=68
num_leaves=12
num_cat=0
split_feature=2 6 6 2 6 6 6 2 6 1 1
split_gain=1.136e+10 5.89941e+09 4.50786e+09 3.89019e+09 5.17922e+09 6.57486e+09 5.91531e+09 4.17579e+09 3.81179e+09 3.62479e+09 3.2156e+09
threshold=1341.5000000000002 1971.5000000000002 2008.5000000000002 454.50000000000006 1902.0000000000002 1940.5000000000002 1920.5000000000002 909.00000000000011 1949.5000000000002 1007.5000000000001 1974.5000000000002
decision_type=2 2 2 2 2 2 2 2 2 2 2
left_child=1 3 10 8 -5 6 -6 -7 -1 -8 -3
right_child=-2 2 -4 4 5 7 9 -9 -10 -11 -12
leaf_value=-535.73481502721813 1377.4630832127164 71.749161870332699 988.56016458364638 -928.93572246844963 1.2261116875542535 -28.247265567419664 569.59935557047527 -973.19985188802082 -163.06697383060634 1665.6831365411931 -610.6448147243924
leaf_count=101 14 422 13 13 36 53 24 15 214 11 18
internal_value=0 -1152.22 1418.89 -3646.24 508.654 2293.8 9024.52 -4733.85 -5651.15 18281.7 876.661
internal_count=934 920 453 467 152 139 71 68 315 35 440
shrinkage=0.05


Tree=69
num_leaves=12
num_cat=0
split_feature=6 3 6 1 0 1 3 1 0 6 1
split_gain=6.53909e+09 4.89283e+09 2.28162e+10 1.52953e+10 7.23081e+09 5.64667e+09 4.45173e+09 4.59672e+09 4.77139e+09 3.46911e+09 3.46307e+09
threshold=1971.5000000000002 1683.0000000000002 2005.5000000000002 1777.5000000000002 14591.500000000002 1655.0000000000002 1580.5000000000002 1506.0000000000002 11993.500000000002 1902.0000000000002 735.50000000000011
decision_type=2 2 2 2 2 2 2 2 2 2 2
left_child=6 5 4 -4 -3 -2 7 9 -9 -1 -11
right_child=1 2 3 -5 -6 -7 -8 8 -10 10 -12
leaf_value=-952.79305332728802 68.844017127985808 856.24894205729163 994.29744762073824 -1348.5127470317641 2394.82932027181 -990.5335383488582 -915.46298571134867 -266.4496821812221 950.04069181743421 -613.24286185599658 -105.71782323229216
leaf_count=14 388 21 11 19 12 13 19 14 19 37 367
internal_value=0 1977.12 10169.7 -9789.65 28314.7 690.002 -3314.93 -2683.24 8679.08 -3580.26 -3043.98
internal_count=934 464 63 30 33 401 470 451 33 418 404
shrinkage=0.05


Tree=70
num_leaves=12
num_cat=0
split_feature=3 6 4 3 5 6 7 7 4 7 6
split_gain=7.56437e+09 7.46928e+09 7.40667e+09 4.07434e+10 8.9202e+09 5.81676e+09 3.32771e+09 6.42784e+09 2.94601e+09 2.69347e+09 2.4665e+09
threshold=1.0000000180025095e-35 1920.5000000000002 876.00000000000011 2093.5000000000005 7.5000000000000009 2007.5000000000002 7.5000000000000009 5.5000000000000009 1.0000000180025095e-35 6.5000000000000009 1940.5000000000002
decision_type=2 2 2 2 2 2 2 2 2 2 2
left_child=-1 6 3 5 -4 8 7 -2 -3 -7 -10
right_child=1 2 4 -5 -6 9 -8 -9 10 -11 -12
leaf_value=-832.77476589496337 -788.48253199259443 -497.51249121093753 163.35277018229164 3123.5041370738636 -1561.0023559570313 278.14391368519171 -979.84502840909101 409.34243549165274 320.39357207860706 1361.3308715820312 23.402998140233208
leaf_count=26 24 25 15 11 15 11 22 21 78 12 674
internal_value=0 643.874 1453.41 2024.18 -13976.5 1193.05 -9517.61 -4589.95 729.125 16865.7 1084.16
internal_count=934 908 841 811 30 800 67 45 777 23 752
shrinkage=0.05


Tree=71
num_leaves=12
num_cat=0
split_feature=6 0 4 4 1 1 7 6 6 4 1
split_gain=6.54331e+09 7.41695e+09 9.03506e+09 7.16493e+09 1.89448e+10 7.03625e+09 6.88801e+09 8.1238e+09 5.32006e+09 4.90004e+09 4.51118e+09
threshold=1993.5000000000002 20662.500000000004 687.50000000000011 876.00000000000011 1974.5000000000002 1846.0000000000002 9.5000000000000018 2004.5000000000002 1914.5000000000002 386.00000000000006 1322.0000000000002
decision_type=2 2 2 2 2 2 2 2 2 2 2
left_child=1 2 5 4 6 8 9 -8 -1 -2 -4
right_child=3 -3 10 -5 -6 -7 7 -9 -10 -11 -12
leaf_value=-797.41699015299491 -967.35151094272737 735.74490497295676 -428.63933367047986 -707.45158342633931 2284.7367209694603 1022.0073852539062 95.126680814302887 1370.8087066650392 -77.224844506207646 112.05459575813359 -1749.77421875
leaf_count=27 11 26 14 21 11 14 26 24 510 238 12
internal_value=0 -1806.82 -2551.3 3726.67 4937.61 -1691.72 3438.18 14149.1 -2268.71 1287.4 -20767.9
internal_count=934 603 577 331 310 551 299 50 537 249 26
shrinkage=0.05


Tree=72
num_leaves=12
num_cat=0
split_feature=3 2 1 2 3 0 1 1 3 4 0
split_gain=6.79969e+09 7.49005e+09 4.55677e+09 5.31977e+09 1.58366e+10 5.038e+09 9.31132e+09 5.54689e+09 4.95914e+09 4.79697e+09 2.35122e+09
threshold=1.0000000180025095e-35 1426.5000000000002 663.50000000000011 354.50000000000006 2093.5000000000005 17411.500000000004 1431.5000000000002 1322.0000000000002 1213.0000000000002 237.00000000000003 13220.000000000002
decision_type=2 2 2 2 2 2 2 2 2 2 2
left_child=-1 2 -2 4 9 6 7 8 -5 -4 -11
right_child=1 -3 3 5 -6 -7 -8 -9 -10 10 -12
leaf_value=-789.93111214270959 -582.08969943138868 1271.0414510091148 -638.42861617650749 149.96863587052732 1811.9974143288355 -625.52885331047912 1105.3345032010761 -901.64867757161471 1149.7675264798679 -105.93517538317843 217.79795460283759
leaf_count=26 31 12 39 270 11 18 28 12 13 409 65
internal_value=0 603.06 270.679 697.6 -1302.95 3771.76 4679.14 3025 3917.92 -2107.97 -1230.83
internal_count=934 908 896 865 524 341 323 295 283 513 474
shrinkage=0.05


Tree=73
num_leaves=12
num_cat=0
split_feature=3 2 6 6 2 6 4 6 3 6 2
split_gain=6.13672e+09 6.75977e+09 7.18649e+09 4.83987e+09 5.14869e+09 7.35427e+09 4.41852e+09 3.85992e+09 3.55416e+09 3.27641e+09 3.61182e+09
threshold=1.0000000180025095e-35 1426.5000000000002 1920.5000000000002 2008.5000000000002 354.50000000000006 1940.5000000000002 349.50000000000006 1958.5000000000002 1389.5000000000002 1971.5000000000002 909.00000000000011
decision_type=2 2 2 2 2 2 2 2 2 2 2
left_child=-1 2 -2 4 7 6 -6 8 -4 10 -7
right_child=1 -3 3 -5 5 9 -8 -9 -10 -11 -12
leaf_value=-750.43455270620495 -497.70204203128816 1207.4893147786458 -200.20399294011295 1009.3148493840145 390.72386621935618 7.4405371586481737 1388.0151692708334 24.541247764040946 -1039.3043324061803 193.75521651447411 -840.65428951487831
leaf_count=26 64 12 128 13 29 48 18 363 14 202 17
internal_value=0 572.907 257.145 1042.62 738.753 3918.46 15453.3 -1238.33 -5658.64 1887.98 -4287.38
internal_count=934 908 896 832 819 314 47 505 142 267 65
shrinkage=0.05


Tree=74
num_leaves=12
num_cat=0
split_feature=3 6 6 5 3 0 6 5 7 7 0
split_gain=5.53839e+09 5.63136e+09 4.24483e+09 7.09957e+09 2.65757e+10 6.09842e+09 5.9425e+09 2.90897e+09 4.77349e+09 9.98642e+09 2.64006e+09
threshold=1.0000000180025095e-35 1920.5000000000002 2008.5000000000002 10.500000000000002 2093.5000000000005 20662.500000000004 1963.5000000000002 6.5000000000000009 7.5000000000000009 5.5000000000000009 5000.5000000000009
decision_type=2 2 2 2 2 2 2 2 2 2 2
left_child=-1 7 3 4 5 10 -7 -2 9 -9 -3
right_child=1 2 -4 -5 -6 6 -8 8 -10 -11 -12
leaf_value=-712.91282700758711 -854.93770014444988 -260.32504344045378 958.84905823927659 -882.31316894531255 2313.7477989783652 62.562484975961524 1605.5493885040285 -762.19014543805804 -926.0182713099889 1094.6059834798177 41.4408410929111
leaf_count=26 24 81 13 20 13 13 12 14 14 15 689
internal_value=0 544.262 1247.18 965.671 1426.36 692.989 16063.9 -8278.91 -3356.2 3964.43 193.933
internal_count=934 908 841 828 808 795 25 67 43 29 770
shrinkage=0.05


Tree=75
num_leaves=12
num_cat=0
split_feature=6 5 1 4 6 7 6 4 4 5 6
split_gain=6.40148e+09 4.96416e+09 1.97789e+10 3.05218e+09 4.24687e+09 3.61263e+09 4.03641e+09 8.60142e+09 3.06884e+09 5.12619e+09 8.48867e+09
threshold=2008.5000000000002 10.500000000000002 2128.5000000000005 1.0000000180025095e-35 1902.0000000000002 4.5000000000000009 2005.5000000000002 620.50000000000011 572.50000000000011 5.5000000000000009 1994.5000000000002
decision_type=2 2 2 2 2 2 2 2 2 2 2
left_child=1 2 3 -1 -5 -6 8 -8 -7 -10 -11
right_child=-2 -3 -4 4 5 6 7 -9 9 10 -12
leaf_value=-394.87783318285676 1021.9026426188152 -744.72074425738799 2106.3465465198865 -900.17380206768325 -175.28631166592993 91.050943315029144 1410.9151435403264 90.774802280002177 382.6658268229167 -878.55043293346068 60.981172612028303
leaf_count=53 15 23 11 13 198 432 17 45 30 44 53
internal_value=0 -388.162 -15.7918 -539.6 -70.8837 213.761 1399.68 9054.98 550.618 -3770.75 -7303.96
internal_count=934 919 896 885 832 819 621 62 559 127 97
shrinkage=0.05


Tree=76
num_leaves=12
num_cat=0
split_feature=2 7 4 5 2 7 3 2 3 5 7
split_gain=4.49912e+09 1.13433e+10 3.17405e+10 5.87605e+09 6.28955e+09 3.66267e+09 5.27402e+09 4.744e+09 6.29929e+09 4.58166e+09 4.15873e+09
threshold=1179.5000000000002 7.5000000000000009 795.50000000000011 9.5000000000000018 909.00000000000011 9.5000000000000018 1050.5000000000002 625.50000000000011 1159.5000000000002 5.5000000000000009 10.500000000000002
decision_type=2 2 2 2 2 2 2 2 2 2 2
left_child=3 2 -2 5 -5 7 -7 -1 -9 -8 -11
right_child=1 -3 -4 4 -6 6 9 8 -10 10 -12
leaf_value=-122.66116920557238 -375.67008559283084 -637.45474304199217 2906.3518460787259 154.96356154221758 -1272.307515676398 -92.807041222708563 1503.0592798406428 79.532019564509397 1112.1432125091553 958.41739791067039 18.959096994707661
leaf_count=532 17 15 13 13 19 56 11 192 16 19 31
internal_value=0 9704.16 20930.8 -544.803 -13849.6 -48.0089 5151.13 -870.035 3179.27 11584 7519.07
internal_count=934 45 30 889 32 857 117 740 208 61 50
shrinkage=0.05


Tree=77
num_leaves=12
num_cat=0
split_feature=6 5 3 3 2 5 6 7 6 7 3
split_gain=5.7877e+09 4.45857e+09 1.5343e+10 1.21822e+10 3.86655e+09 1.38653e+10 5.82776e+09 4.85776e+09 9.51072e+09 4.6493e+09 4.47791e+09
threshold=2008.5000000000002 10.500000000000002 2093.5000000000005 1238.5000000000002 1.0000000180025095e-35 8.5000000000000018 1949.5000000000002 9.5000000000000018 2005.5000000000002 5.5000000000000009 1050.5000000000002
decision_type=2 2 2 2 2 2 2 2 2 2 2
left_child=1 2 4 -3 5 6 -1 -8 -9 -6 -11
right_child=-2 3 -4 -5 9 -7 7 8 -10 10 -12
leaf_value=-543.40838383641744 971.80743652343756 396.01776660283394 1855.1859508167615 -1907.5941805752843 -142.2946160575375 -1791.3380523681642 -83.882518841552738 38.030619444165914 1359.211698404948 112.49684411085369 627.00152421431119
leaf_count=58 15 12 11 11 128 12 375 56 18 183 55
internal_value=0 -366.488 -13.5898 -14114.2 -474.935 -2230.22 -1435.03 -216.5 7187.98 2014.11 4627.9
internal_count=934 919 896 23 885 519 507 449 74 366 238
shrinkage=0.05


Tree=78
num_leaves=12
num_cat=0
split_feature=2 1 5 2 7 1 2 1 2 7 1
split_gain=4.06673e+09 1.59276e+10 5.07075e+09 5.86238e+09 3.26754e+09 2.89175e+09 4.99025e+09 8.63209e+09 5.8506e+09 5.22053e+09 2.96487e+09
threshold=1179.5000000000002 1457.5000000000002 9.5000000000000018 909.00000000000011 3.5000000000000004 900.50000000000011 262.00000000000006 1322.0000000000002 603.50000000000011 9.5000000000000018 1403.5000000000002
decision_type=2 2 2 2 2 2 2 2 2 2 2
left_child=2 -2 4 -4 -1 -6 9 8 -8 -7 -11
right_child=1 -3 3 -5 5 6 7 -9 -10 10 -12
leaf_value=-232.53860350164751 -203.7294346110026 1791.7386002604167 174.40809279221756 -1203.5419729132402 -127.05949558198762 -84.92121388606536 907.63139135742188 1480.4752994791668 60.972866670075838 48.301800167199339 700.17605124808642
leaf_count=131 30 15 13 19 193 312 25 15 111 33 37
internal_value=0 9228.53 -515.502 -12875 -54.0043 775.44 1976.4 6843.17 4332.17 52.6207 7857.28
internal_count=934 45 889 32 857 726 533 151 136 382 70
shrinkage=0.05


Tree=79
num_leaves=12
num_cat=0
split_feature=6 4 1 2 4 6 6 2 2 6 4
split_gain=5.23606e+09 4.54257e+09 2.04344e+10 1.42543e+10 3.40574e+10 7.42686e+09 4.95293e+09 3.66994e+09 3.30136e+09 5.79385e+09 7.5868e+09
threshold=2008.5000000000002 861.00000000000011 1777.5000000000002 1179.5000000000002 795.50000000000011 1991.5000000000002 1902.0000000000002 1309.0000000000002 1.0000000180025095e-35 2004.5000000000002 687.50000000000011
decision_type=2 2 2 2 2 2 2 2 2 2 2
left_child=1 3 5 6 7 -3 -1 -5 9 10 -8
right_child=-2 2 -4 4 -6 -7 8 -9 -10 -11 -12
leaf_value=-932.97804209391279 924.45325358072921 -786.24288818359378 -2382.9056119051847 510.16822415865374 3301.176890980114 656.59142650257456 -123.25334882164003 -730.73345919522376 108.98230659694316 293.4966835975647 -1121.1350030517578
leaf_count=15 15 15 11 13 11 22 400 11 321 80 20
internal_value=0 -346.228 -9816.91 175.693 19946.9 1433.17 -652.049 -1171.57 -323.045 -1929.77 -3415.43
internal_count=934 919 48 871 35 37 836 24 821 500 420
shrinkage=0.05


Tree=80
num_leaves=12
num_cat=0
split_feature=4 5 1 6 4 4 1 6 1 4 6
split_gain=1.42696e+10 1.11933e+10 5.48652e+09 4.84084e+09 3.47902e+09 3.43002e+09 7.51429e+09 7.00737e+09 1.44741e+10 6.48323e+09 4.01438e+09
threshold=795.50000000000011 9.5000000000000018 663.50000000000011 1902.0000000000002 1.0000000180025095e-35 572.50000000000011 1056.5000000000002 1999.5000000000002 1619.5000000000002 551.00000000000011 1949.5000000000002
decision_type=2 2 2 2 2 2 2 2 2 2 2
left_child=2 -2 -1 -4 -5 6 -6 8 -7 10 -8
right_child=1 -3 3 4 5 7 9 -9 -10 -11 -12
leaf_value=-569.61107452937529 414.06507149411919 1991.9588309151786 -844.89115452766418 -384.02153874255242 -62.025998102493226 -129.52822457159439 799.68822849818639 208.10126582554409 -1695.2809271918404 1145.6854413713727 166.90195954294884
leaf_count=42 57 14 16 47 286 82 28 84 18 21 239
internal_value=0 14504 -244.403 325.887 668.222 1185.88 2390.27 -2571.29 -8227.27 5995.85 4665.23
internal_count=934 71 863 821 805 758 574 184 100 288 267
shrinkage=0.05


Tree=81
num_leaves=12
num_cat=0
split_feature=0 3 6 0 7 6 2 3 0 3 2
split_gain=1.71206e+10 1.41041e+10 7.83879e+09 9.66573e+09 9.25103e+09 5.00371e+09 3.40068e+09 5.65427e+09 3.57802e+09 3.2832e+09 2.4954e+09
threshold=20662.500000000004 1095.5000000000002 2006.5000000000002 12785.000000000002 9.5000000000000018 1958.5000000000002 625.50000000000011 1389.5000000000002 16303.000000000002 1389.5000000000002 1140.5000000000002
decision_type=2 2 2 2 2 2 2 2 2 2 2
left_child=2 -2 5 4 -4 9 8 10 -7 -1 -8
right_child=1 -3 3 -5 -6 6 7 -9 -10 -11 -12
leaf_value=-163.39774520354459 -43.987876238141745 2047.5141434518916 -154.76881000415699 1819.7844228108725 1442.8445432345072 -6.4391487610786733 226.30147908381969 1275.6892092386881 -821.73633771623884 -879.10964032341462 -344.16950628107247
leaf_count=279 14 19 37 12 12 347 149 12 14 17 22
internal_value=0 23204.2 13.5191 10959 4729.67 -781.335 1019 4530.65 -761.146 -4090.06 3058.15
internal_count=934 33 901 61 49 840 544 183 361 296 171
shrinkage=0.05


Tree=82
num_leaves=12
num_cat=0
split_feature=3 4 1 6 3 5 5 5 4 4 6
split_gain=1.23357e+10 6.72848e+09 5.13792e+09 3.70604e+09 2.88296e+09 4.46566e+09 2.54167e+09 2.51966e+09 2.17265e+09 3.11153e+09 6.11783e+09
threshold=2093.5000000000005 901.00000000000011 663.50000000000011 1971.5000000000002 1389.5000000000002 7.5000000000000009 6.5000000000000009 4.5000000000000009 462.50000000000006 572.50000000000011 2006.5000000000002
decision_type=2 2 2 2 2 2 2 2 2 2 2
left_child=1 2 -1 4 7 6 -6 -4 -5 10 -10
right_child=-2 -3 3 8 5 -7 -8 -9 9 -11 -12
leaf_value=-540.29445077805292 1512.5807547433037 1067.4460807291669 -407.5742456389637 -59.127143006758253 -585.17098388671866 -1243.3173389141377 423.93705406188957 5.994464466453258 277.80512354059738 56.849940180224046 1506.2097191550515
leaf_count=42 14 15 41 110 13 13 12 362 129 172 11
internal_value=0 342.936 -5.22976 520.411 -1506.74 -9833.21 -2015.98 -721.615 2638.83 3986.11 7486.45
internal_count=934 920 905 863 441 38 25 403 422 312 140
shrinkage=0.05


Tree=83
num_leaves=12
num_cat=0
split_feature=0 4 0 3 4 5 3 4 4 0 0
split_gain=1.54547e+10 9.20169e+09 1.50179e+10 2.16399e+10 8.67716e+09 5.34584e+09 4.28042e+09 2.57452e+09 2.303e+09 1.10781e+10 8.32778e+09
threshold=27438.000000000004 795.50000000000011 12785.000000000002 1683.0000000000002 876.00000000000011 7.5000000000000009 1.0000000180025095e-35 1.0000000180025095e-35 572.50000000000011 16303.000000000002 13220.000000000002
decision_type=2 2 2 2 2 2 2 2 2 2 2
left_child=1 6 4 -4 5 -3 -1 -8 10 -10 -9
right_child=-2 2 3 -5 -6 -7 7 8 9 -11 -12
leaf_value=-689.82420450846359 1749.5113431490383 -70.219231055764581 315.09616012573235 3195.9654563210229 -1039.0255693708148 1344.3896384499292 -353.06557412514326 -4.0240729392357659 -46.326599037302714 -1682.7399391867898 622.02154450497392
leaf_count=24 13 17 16 11 14 11 52 533 173 11 59
internal_value=0 268.403 11375.5 29775.7 -453.238 9710.4 -631.112 -249.508 206.954 -2883.11 1167.38
internal_count=934 921 69 27 42 28 852 828 776 184 592
shrinkage=0.05


Tree=84
num_leaves=12
num_cat=0
split_feature=0 3 4 1 4 0 0 4 3 3 1
split_gain=1.42125e+10 1.25651e+10 6.66746e+09 4.22353e+09 3.0497e+09 2.22585e+09 3.49172e+09 3.23712e+09 2.69154e+09 3.47844e+09 3.98089e+09
threshold=20662.500000000004 1095.5000000000002 901.00000000000011 663.50000000000011 876.00000000000011 16303.000000000002 15405.000000000002 795.50000000000011 1727.0000000000002 1580.5000000000002 1655.0000000000002
decision_type=2 2 2 2 2 2 2 2 2 2 2
left_child=2 -2 3 -1 5 6 7 8 9 -5 -11
right_child=1 -3 -4 4 -6 -7 -8 -9 -10 10 -12
leaf_value=-509.2673250368664 -81.75228533063617 1892.349505293997 1009.9557792663575 -6.4842523904155485 -822.6149907892401 -407.44118860880536 813.93331832885747 480.48978510962593 -461.0494536369078 1305.0379971590905 52.748953450520837
leaf_count=42 14 19 16 695 11 30 14 36 31 11 15
internal_value=0 21097 -32.4456 -398.214 89.4012 308.102 624.445 346.325 -97.1393 295.148 11651.3
internal_count=934 33 901 885 843 832 802 788 752 721 26
shrinkage=0.05


Tree=85
num_leaves=12
num_cat=0
split_feature=1 4 1 2 5 5 1 3 2 1 4
split_gain=6.80805e+09 9.5925e+09 3.66536e+09 7.44938e+09 1.57334e+10 6.24615e+09 5.61879e+09 3.22471e+09 2.41399e+09 2.06735e+09 2.71945e+09
threshold=2128.5000000000005 901.00000000000011 1506.0000000000002 625.50000000000011 8.5000000000000018 6.5000000000000009 1846.0000000000002 1580.5000000000002 684.50000000000011 1007.5000000000001 453.50000000000006
decision_type=2 2 2 2 2 2 2 2 2 2 2
left_child=1 2 8 4 5 7 -7 -4 -1 -10 -11
right_child=-2 -3 3 -5 -6 6 -8 -9 9 10 -12
leaf_value=-111.38762040018577 -1056.7196305338543 1128.9395148026315 323.99991904810855 1118.0903015136719 -1643.1946431477863 -199.66747455596925 875.48309895833336 1245.1985100997124 -54.852784377809556 754.1172704060873 119.45388506512309
leaf_count=518 15 19 19 20 12 64 15 19 126 21 86
internal_value=0 343.001 -126.422 4404.26 1620.15 5156.97 89.5008 15692 -1025.32 1647.9 4880.28
internal_count=934 919 900 149 129 117 79 38 751 233 107
shrinkage=0.05


Tree=86
num_leaves=12
num_cat=0
split_feature=0 6 3 6 3 0 0 7 3 0 6
split_gain=6.34832e+09 1.71404e+10 1.11731e+10 5.88331e+09 4.58287e+09 4.59093e+09 5.51653e+09 2.65395e+09 6.12625e+09 5.39529e+09 3.88499e+09
threshold=27438.000000000004 2007.5000000000002 1580.5000000000002 2004.5000000000002 1389.5000000000002 9928.5000000000018 12418.000000000002 8.5000000000000018 1326.0000000000002 20662.500000000004 1920.5000000000002
decision_type=2 2 2 2 2 2 2 2 2 2 2
left_child=1 3 -3 7 -5 -6 -7 9 10 -1 -9
right_child=-2 2 -4 4 5 6 -8 8 -10 -11 -12
leaf_value=-48.140878141427891 -1020.4154508463542 404.17440592447912 2373.8293294270834 49.556845839127249 1533.6714823404948 -143.25302925109864 1125.2060432942708 -988.49458229758534 -889.2119244975429 1069.0108625932173 0.53104064417820351
leaf_count=618 15 18 12 69 12 20 15 11 31 11 102
internal_value=0 331.247 23840.7 -462.098 6178.71 13794.5 8007.45 -1458.65 -5331.23 -572.081 -1914.92
internal_count=934 919 30 889 116 47 35 773 144 629 113
shrinkage=0.05


Tree=87
num_leaves=12
num_cat=0
split_feature=6 2 2 5 7 3 3 6 3 3 3
split_gain=5.35093e+09 5.9326e+09 4.0542e+09 1.31386e+10 4.93567e+09 1.63443e+10 1.42196e+10 4.11958e+09 4.30982e+09 3.8982e+09 3.07723e+09
threshold=2007.5000000000002 603.50000000000011 578.00000000000011 8.5000000000000018 9.5000000000000018 1413.5000000000002 1095.5000000000002 2004.5000000000002 1413.5000000000002 1924.0000000000002 1683.0000000000002
decision_type=2 2 2 2 2 2 2 2 2 2 2
left_child=2 -2 3 7 5 -4 -6 9 -9 10 -1
right_child=1 -3 4 -5 6 -7 -8 8 -10 -11 -12
leaf_value=-119.01187233714938 1195.5259174547696 -224.53127034505212 99.975158693073766 -1670.570628004808 197.73321871076314 1701.7606251436123 -1923.9032909046521 -117.62512987409319 646.64922907902655 -1045.1471013849432 514.06147449493415
leaf_count=477 19 12 252 13 28 17 11 35 39 11 20
internal_value=0 12916.5 -445.222 -1969.72 2499.82 4024.06 -8013.54 -1267.41 5703.36 -2282.84 -1870.72
internal_count=934 31 903 595 308 269 39 582 74 508 497
shrinkage=0.05


Tree=88
num_leaves=12
num_cat=0
split_feature=1 6 7 5 1 7 6 1 6 1 6
split_gain=5.95301e+09 1.01209e+10 9.30703e+09 6.10412e+09 4.07076e+09 2.31208e+09 2.46309e+09 1.91017e+09 1.37537e+10 3.92204e+09 3.55531e+09
threshold=2128.5000000000005 2004.5000000000002 9.5000000000000018 9.5000000000000018 1619.5000000000002 4.5000000000000009 1951.5000000000002 1777.5000000000002 1986.5000000000002 1655.0000000000002 1974.5000000000002
decision_type=2 2 2 2 2 2 2 2 2 2 2
left_child=1 5 3 4 -3 6 -1 9 -9 -7 -11
right_child=-2 2 -4 -5 -6 7 -8 8 -10 10 -12
leaf_value=-527.37705237347143 -988.12781860351572 -53.676959541045044 1373.8127766927084 1358.8254527698864 634.46588218952047 1.9197235851710133 -104.5169667598975 1459.8070023945397 -902.79088911576719 -1167.1540684291292 34.053986150568186
leaf_count=46 15 83 21 11 29 542 137 14 11 14 11
internal_value=0 320.889 8019.65 4697.79 2490.06 -1109.59 -4216.19 -149.273 8405.28 -526.458 -12772.5
internal_count=934 919 144 123 112 775 183 592 25 567 25
shrinkage=0.05


Tree=89
num_leaves=12
num_cat=0
split_feature=1 4 3 2 3 1 4 1 5 3 5
split_gain=5.37259e+09 8.02457e+09 9.22812e+09 7.81636e+09 1.96525e+09 2.38914e+09 5.31752e+09 4.59799e+09 4.53737e+09 2.62213e+09 2.39927e+09
threshold=2128.5000000000005 839.50000000000011 1727.0000000000002 983.50000000000011 1.0000000180025095e-35 1506.0000000000002 572.50000000000011 1777.5000000000002 6.5000000000000009 1413.5000000000002 8.5000000000000018
decision_type=2 2 2 2 2 2 2 2 2 2 2
left_child=1 4 3 -3 -1 -6 7 8 -7 -10 -8
right_child=-2 2 -4 -5 5 6 10 -9 9 -11 -12
leaf_value=-449.79300912710335 -938.72140136718758 -296.02424528884893 1898.8909246271305 1070.4461351182727 -43.54367260326039 931.26125250922314 19.149720703125002 1357.5842426006611 439.93982456752224 -484.09742359834564 -768.13167114257817
leaf_count=26 15 25 11 18 715 18 50 13 14 17 12
internal_value=0 304.844 12131.6 5519.73 -433.471 -168.129 3883.98 10432.5 5996.82 -1335.81 -2664.55
internal_count=934 919 54 43 865 839 124 62 49 31 62
shrinkage=0.05


Tree=90
num_leaves=12
num_cat=0
split_feature=4 1 3 6 6 1 6 3 1 3 5
split_gain=7.52968e+09 2.51144e+10 1.00795e+10 7.48796e+09 4.11919e+09 1.73497e+09 1.34395e+09 4.49606e+09 3.30806e+09 4.68769e+09 4.06784e+09
threshold=861.00000000000011 1777.5000000000002 2093.5000000000005 1996.5000000000002 2007.5000000000002 663.50000000000011 2004.5000000000002 1621.0000000000002 1485.0000000000002 1499.5000000000002 9.5000000000000018
decision_type=2 2 2 2 2 2 2 2 2 2 2
left_child=2 3 4 -2 5 -1 7 8 10 -10 -7
right_child=1 -3 -4 -5 -6 6 -8 -9 9 -11 -12
leaf_value=-396.31621879808836 -1009.6815030184657 -2742.7154341264209 1499.0577355818316 614.45017578124998 667.97234468005956 -37.319092831840962 140.53021211170014 -603.71023315429682 633.67519825526642 -231.07760888671874 -821.58749928193947
leaf_count=33 11 11 11 20 21 603 105 35 42 25 17
internal_value=0 -13803.5 -102.434 762.908 -478.052 -815.944 -532.217 -1018.36 -455.109 6220.12 -1176.46
internal_count=934 42 892 31 881 860 827 722 687 67 620
shrinkage=0.05


Tree=91
num_leaves=12
num_cat=0
split_feature=1 2 1 7 3 4 4 7 7 4 1
split_gain=6.93319e+09 4.10357e+09 1.00547e+10 8.33532e+09 4.33241e+09 4.03907e+09 6.18091e+09 3.22875e+09 3.22232e+09 3.28146e+09 3.07499e+09
threshold=2128.5000000000005 1.0000000180025095e-35 1403.5000000000002 5.5000000000000009 1477.5000000000002 572.50000000000011 551.00000000000011 8.5000000000000018 5.5000000000000009 607.00000000000011 1371.0000000000002
decision_type=2 2 2 2 2 2 2 2 2 2 2
left_child=1 5 -3 -4 -5 6 -1 8 9 -7 -10
right_child=-2 2 3 4 -6 7 -8 -9 10 -11 -12
leaf_value=-69.349846749584657 -1180.755585186298 21.126078574690101 -151.18536805372972 2042.1248384915862 724.64936014811201 392.59182236615351 906.35473130170033 132.40313678609914 -176.30355724758573 -443.14356005819218 -963.2396922302247
leaf_count=359 13 365 13 13 12 17 17 29 18 38 40
internal_value=0 -358.921 2034.19 17514.7 28194.7 -2220.75 -504.711 -6764.61 -9180.26 -3696.51 -14380.4
internal_count=934 921 403 38 25 518 376 142 113 55 58
shrinkage=0.05


Tree=92
num_leaves=12
num_cat=0
split_feature=1 6 3 2 1 5 5 3 3 3 6
split_gain=6.25721e+09 4.30616e+09 5.25493e+09 4.26555e+09 6.57522e+09 3.84997e+09 3.82659e+09 7.4122e+09 4.06728e+09 3.57228e+09 3.07216e+09
threshold=2128.5000000000005 2007.5000000000002 1804.5000000000002 1.0000000180025095e-35 1485.0000000000002 9.5000000000000018 6.5000000000000009 1580.5000000000002 1547.0000000000002 1213.0000000000002 1946.5000000000002
decision_type=2 2 2 2 2 2 2 2 2 2 2
left_child=1 2 3 6 5 9 7 10 -8 -5 -1
right_child=-2 -3 -4 4 -6 -7 8 -9 -10 -11 -12
leaf_value=-480.24367980957032 -1121.7179207435022 630.1968037109375 651.84542552806715 19.839527754513725 906.64496642026052 -569.78353694035457 -145.83325203204978 1197.0767726551403 -775.40544101880948 693.15591009230843 -62.032040883619572
leaf_count=51 13 25 27 318 22 26 58 11 46 21 316
internal_value=0 -340.975 -702.161 -1129.04 1343.52 331.555 -3114.26 -1636.33 -8485.96 1230.99 -2402.97
internal_count=934 921 896 869 387 365 482 378 104 339 367
shrinkage=0.05


Tree=93
num_leaves=12
num_cat=0
split_feature=4 6 3 6 2 0 4 6 6 6 0
split_gain=6.71238e+09 1.56918e+10 9.77805e+09 7.49708e+09 3.45207e+09 7.62292e+09 4.02951e+09 7.60144e+09 3.13758e+09 2.99642e+09 2.74977e+09
threshold=861.00000000000011 2006.5000000000002 2093.5000000000005 1979.5000000000002 1.0000000180025095e-35 20662.500000000004 649.00000000000011 2006.5000000000002 1946.5000000000002 2001.5000000000002 12174.000000000002
decision_type=2 2 2 2 2 2 2 2 2 2 2
left_child=2 3 4 -2 6 -6 7 8 -1 -8 -11
right_child=1 -3 -4 -5 5 -7 9 -9 -10 10 -12
leaf_value=-464.73671147273137 -1121.2869959050956 -2270.9576194069605 1479.7951413241301 503.83365417480474 49.194726581108284 1237.8415222167969 -1015.3023295352334 896.5314590454102 -49.884499694596791 -552.98811414718637 343.54932391826924
leaf_count=52 11 11 11 20 369 14 19 20 369 25 13
internal_value=0 -12970.5 -34.3494 -1456.44 -404.307 1852.88 -2140.26 -1117.6 -2022.5 -10052.4 -4925.56
internal_count=934 42 892 31 881 383 498 441 421 57 38
shrinkage=0.05


Tree=94
num_leaves=12
num_cat=0
split_feature=5 3 3 2 6 5 6 6 3 5 6
split_gain=4.65214e+09 8.95866e+09 8.2697e+09 2.78678e+09 3.5527e+09 3.91863e+09 5.95166e+09 3.41007e+09 2.69589e+09 6.94815e+09 1.80217e+09
threshold=10.500000000000002 2093.5000000000005 1238.5000000000002 1.0000000180025095e-35 1946.5000000000002 7.5000000000000009 2002.5000000000002 2007.5000000000002 1059.0000000000002 7.5000000000000009 1994.5000000000002
decision_type=2 2 2 2 2 2 2 2 2 2 2
left_child=1 3 -2 4 -1 7 -7 -6 -5 -10 -11
right_child=2 -3 -4 8 5 6 -8 -9 9 10 -12
leaf_value=-487.71864234076605 274.45844802856436 1346.7203539530437 -1514.2806692940849 6.583259990692139 -39.992521140100862 -1135.243916168213 158.55073270797732 851.89265802556827 1089.4459900595925 -286.7664703369141 286.40072269439696
leaf_count=54 12 12 14 300 417 20 16 11 22 24 32
internal_value=0 -207.601 -13774.2 -571.11 -2077.64 -1184.23 -11204.5 -341.405 1493.4 6730.83 815.153
internal_count=934 908 26 896 518 464 36 428 378 78 56
shrinkage=0.05


Tree=95
num_leaves=12
num_cat=0
split_feature=2 3 0 2 7 4 2 4 3 4 4
split_gain=7.26197e+09 6.48582e+09 2.13919e+09 1.55414e+09 5.07106e+09 4.23081e+09 4.08339e+09 4.4311e+09 3.90738e+09 3.67641e+09 7.78414e+09
threshold=1341.5000000000002 2093.5000000000005 5000.5000000000009 909.00000000000011 7.5000000000000009 485.00000000000006 488.50000000000006 901.00000000000011 978.50000000000011 572.50000000000011 551.00000000000011
decision_type=2 2 2 2 2 2 2 2 2 2 2
left_child=1 2 -1 6 5 -5 7 9 -6 10 -4
right_child=-2 -3 3 4 8 -7 -8 -9 -10 -11 -12
leaf_value=-239.53418931166331 1115.7984860556467 -1186.4064015706381 -31.90255060171944 -571.37153218587241 52.263691850142031 335.63316372341581 228.3184693712177 954.3614626797762 -1120.9635781860352 -277.04099439255737 982.46323913574224
leaf_count=96 14 12 348 18 11 45 198 11 20 141 20
internal_value=0 -631.919 -326.683 201.08 -3622.46 1529.78 701.655 -769.909 -14093.1 -1199.04 464.52
internal_count=934 920 908 812 94 63 718 520 31 509 368
shrinkage=0.05


Tree=96
num_leaves=12
num_cat=0
split_feature=3 1 4 7 3 1 0 4 0 1 7
split_gain=2.50751e+09 2.12211e+09 1.83472e+09 8.96653e+09 8.82264e+09 1.97515e+09 3.24293e+09 1.40191e+09 7.90602e+09 5.07672e+09 3.17829e+09
threshold=1.0000000180025095e-35 767.50000000000011 876.00000000000011 5.5000000000000009 2093.5000000000005 1974.5000000000002 20662.500000000004 572.50000000000011 12785.000000000002 1541.5000000000002 4.5000000000000009
decision_type=2 2 2 2 2 2 2 2 2 2 2
left_child=-1 -2 4 -4 5 6 7 9 -9 -3 -11
right_child=1 2 3 -5 -6 -7 -8 8 -10 10 -12
leaf_value=-518.14434000651045 -228.04822046445767 11.90911377897357 -1398.7953575134275 434.90279947916673 1445.2192923805933 -646.0182972301136 691.97658623589416 60.837302844509765 -701.3374147636946 -45.230999051607576 906.34373621057591
leaf_count=24 92 505 12 15 11 11 18 163 43 13 27
internal_value=0 -7.45708 504.673 -7601.48 781.369 384.762 575.083 257.16 -1965.15 1097.15 11941.6
internal_count=934 910 818 27 791 780 769 751 206 545 40
shrinkage=0.05


Tree=97
num_leaves=12
num_cat=0
split_feature=5 0 6 6 1 1 1 1 0 0 5
split_gain=3.95576e+09 3.40082e+09 1.67549e+10 2.40574e+09 5.50183e+09 3.79799e+09 2.35563e+09 1.68287e+09 1.27674e+09 5.33742e+09 3.52183e+09
